digraph Tree {
node [shape=box, style="rounded", color="black", fontname=helvetica] ;
edge [fontname=helvetica] ;
0 [label="AirPressure <= 0.5\nmse = 0.1\nsamples = 5813\nvalue = 0.2"] ;
1 [label="WindSpeed100m <= 0.4\nmse = 0.1\nsamples = 1687\nvalue = 0.3"] ;
0 -> 1 [labeldistance=2.5, labelangle=45, headlabel="True"] ;
2 [label="WindSpeed100m <= 0.3\nmse = 0.0\nsamples = 765\nvalue = 0.2"] ;
1 -> 2 ;
3 [label="WindSpeed10m <= 0.1\nmse = 0.0\nsamples = 455\nvalue = 0.1"] ;
2 -> 3 ;
4 [label="Humidity <= 1.0\nmse = 0.0\nsamples = 145\nvalue = 0.1"] ;
3 -> 4 ;
5 [label="WindDirectionZonal <= 0.1\nmse = 0.0\nsamples = 125\nvalue = 0.1"] ;
4 -> 5 ;
6 [label="Temperature <= 0.7\nmse = 0.0\nsamples = 17\nvalue = 0.0"] ;
5 -> 6 ;
7 [label="WindDirectionMeridional <= 0.3\nmse = 0.0\nsamples = 13\nvalue = 0.0"] ;
6 -> 7 ;
8 [label="mse = 0.0\nsamples = 3\nvalue = 0.0"] ;
7 -> 8 ;
9 [label="WindSpeed10m <= 0.1\nmse = 0.0\nsamples = 10\nvalue = 0.0"] ;
7 -> 9 ;
10 [label="WindDirectionMeridional <= 0.4\nmse = 0.0\nsamples = 7\nvalue = 0.0"] ;
9 -> 10 ;
11 [label="mse = 0.0\nsamples = 3\nvalue = 0.0"] ;
10 -> 11 ;
12 [label="mse = 0.0\nsamples = 4\nvalue = 0.0"] ;
10 -> 12 ;
13 [label="mse = 0.0\nsamples = 3\nvalue = 0.0"] ;
9 -> 13 ;
14 [label="mse = 0.0\nsamples = 4\nvalue = 0.0"] ;
6 -> 14 ;
15 [label="WindSpeed10m <= 0.1\nmse = 0.0\nsamples = 108\nvalue = 0.1"] ;
5 -> 15 ;
16 [label="Temperature <= 0.5\nmse = 0.0\nsamples = 51\nvalue = 0.0"] ;
15 -> 16 ;
17 [label="WindDirectionMeridional <= 0.8\nmse = 0.0\nsamples = 8\nvalue = 0.1"] ;
16 -> 17 ;
18 [label="mse = 0.0\nsamples = 3\nvalue = 0.2"] ;
17 -> 18 ;
19 [label="mse = 0.0\nsamples = 5\nvalue = 0.1"] ;
17 -> 19 ;
20 [label="Temperature <= 0.6\nmse = 0.0\nsamples = 43\nvalue = 0.0"] ;
16 -> 20 ;
21 [label="Humidity <= 0.8\nmse = 0.0\nsamples = 7\nvalue = 0.0"] ;
20 -> 21 ;
22 [label="mse = 0.0\nsamples = 3\nvalue = 0.1"] ;
21 -> 22 ;
23 [label="mse = 0.0\nsamples = 4\nvalue = 0.0"] ;
21 -> 23 ;
24 [label="WindSpeed100m <= 0.1\nmse = 0.0\nsamples = 36\nvalue = 0.0"] ;
20 -> 24 ;
25 [label="AirPressure <= 0.4\nmse = 0.0\nsamples = 16\nvalue = 0.0"] ;
24 -> 25 ;
26 [label="mse = 0.0\nsamples = 4\nvalue = 0.0"] ;
25 -> 26 ;
27 [label="ForecastingTime <= 34.5\nmse = 0.0\nsamples = 12\nvalue = 0.0"] ;
25 -> 27 ;
28 [label="mse = -0.0\nsamples = 7\nvalue = 0.0"] ;
27 -> 28 ;
29 [label="mse = 0.0\nsamples = 5\nvalue = 0.0"] ;
27 -> 29 ;
30 [label="AirPressure <= 0.4\nmse = 0.0\nsamples = 20\nvalue = 0.0"] ;
24 -> 30 ;
31 [label="WindDirectionZonal <= 0.3\nmse = 0.0\nsamples = 6\nvalue = 0.0"] ;
30 -> 31 ;
32 [label="mse = 0.0\nsamples = 3\nvalue = 0.0"] ;
31 -> 32 ;
33 [label="mse = 0.0\nsamples = 3\nvalue = 0.0"] ;
31 -> 33 ;
34 [label="WindSpeed100m <= 0.1\nmse = 0.0\nsamples = 14\nvalue = 0.0"] ;
30 -> 34 ;
35 [label="mse = 0.0\nsamples = 3\nvalue = 0.0"] ;
34 -> 35 ;
36 [label="WindSpeed100m <= 0.1\nmse = 0.0\nsamples = 11\nvalue = 0.0"] ;
34 -> 36 ;
37 [label="WindDirectionZonal <= 0.7\nmse = 0.0\nsamples = 6\nvalue = 0.0"] ;
36 -> 37 ;
38 [label="mse = 0.0\nsamples = 3\nvalue = 0.0"] ;
37 -> 38 ;
39 [label="mse = 0.0\nsamples = 3\nvalue = 0.0"] ;
37 -> 39 ;
40 [label="mse = 0.0\nsamples = 5\nvalue = 0.0"] ;
36 -> 40 ;
41 [label="WindSpeed100m <= 0.2\nmse = 0.0\nsamples = 57\nvalue = 0.1"] ;
15 -> 41 ;
42 [label="WindSpeed100m <= 0.1\nmse = 0.0\nsamples = 50\nvalue = 0.1"] ;
41 -> 42 ;
43 [label="mse = 0.0\nsamples = 3\nvalue = 0.2"] ;
42 -> 43 ;
44 [label="ForecastingTime <= 31.5\nmse = 0.0\nsamples = 47\nvalue = 0.1"] ;
42 -> 44 ;
45 [label="WindSpeed10m <= 0.1\nmse = 0.0\nsamples = 13\nvalue = 0.0"] ;
44 -> 45 ;
46 [label="WindDirectionMeridional <= 0.6\nmse = 0.0\nsamples = 9\nvalue = 0.0"] ;
45 -> 46 ;
47 [label="mse = 0.0\nsamples = 5\nvalue = 0.0"] ;
46 -> 47 ;
48 [label="mse = 0.0\nsamples = 4\nvalue = 0.0"] ;
46 -> 48 ;
49 [label="mse = 0.0\nsamples = 4\nvalue = 0.0"] ;
45 -> 49 ;
50 [label="WindDirectionZonal <= 0.8\nmse = 0.0\nsamples = 34\nvalue = 0.1"] ;
44 -> 50 ;
51 [label="WindSpeed10m <= 0.1\nmse = 0.0\nsamples = 22\nvalue = 0.1"] ;
50 -> 51 ;
52 [label="ForecastingTime <= 39.0\nmse = 0.0\nsamples = 9\nvalue = 0.2"] ;
51 -> 52 ;
53 [label="mse = 0.0\nsamples = 5\nvalue = 0.2"] ;
52 -> 53 ;
54 [label="mse = 0.0\nsamples = 4\nvalue = 0.1"] ;
52 -> 54 ;
55 [label="WindDirectionMeridional <= 0.9\nmse = 0.0\nsamples = 13\nvalue = 0.1"] ;
51 -> 55 ;
56 [label="ForecastingTime <= 41.0\nmse = 0.0\nsamples = 10\nvalue = 0.0"] ;
55 -> 56 ;
57 [label="mse = 0.0\nsamples = 5\nvalue = 0.1"] ;
56 -> 57 ;
58 [label="mse = 0.0\nsamples = 5\nvalue = 0.0"] ;
56 -> 58 ;
59 [label="mse = 0.0\nsamples = 3\nvalue = 0.1"] ;
55 -> 59 ;
60 [label="ForecastingTime <= 44.0\nmse = 0.0\nsamples = 12\nvalue = 0.0"] ;
50 -> 60 ;
61 [label="WindSpeed10m <= 0.1\nmse = 0.0\nsamples = 8\nvalue = 0.0"] ;
60 -> 61 ;
62 [label="mse = 0.0\nsamples = 3\nvalue = 0.0"] ;
61 -> 62 ;
63 [label="mse = 0.0\nsamples = 5\nvalue = 0.0"] ;
61 -> 63 ;
64 [label="mse = 0.0\nsamples = 4\nvalue = 0.0"] ;
60 -> 64 ;
65 [label="WindDirectionMeridional <= 0.4\nmse = 0.0\nsamples = 7\nvalue = 0.2"] ;
41 -> 65 ;
66 [label="mse = 0.0\nsamples = 4\nvalue = 0.2"] ;
65 -> 66 ;
67 [label="mse = 0.0\nsamples = 3\nvalue = 0.3"] ;
65 -> 67 ;
68 [label="Humidity <= 1.0\nmse = 0.1\nsamples = 20\nvalue = 0.3"] ;
4 -> 68 ;
69 [label="mse = 0.2\nsamples = 3\nvalue = 0.5"] ;
68 -> 69 ;
70 [label="WindSpeed100m <= 0.1\nmse = 0.0\nsamples = 17\nvalue = 0.3"] ;
68 -> 70 ;
71 [label="mse = 0.0\nsamples = 3\nvalue = 0.1"] ;
70 -> 71 ;
72 [label="Humidity <= 1.0\nmse = 0.0\nsamples = 14\nvalue = 0.3"] ;
70 -> 72 ;
73 [label="Temperature <= 0.5\nmse = 0.0\nsamples = 9\nvalue = 0.2"] ;
72 -> 73 ;
74 [label="WindSpeed10m <= 0.1\nmse = 0.0\nsamples = 6\nvalue = 0.3"] ;
73 -> 74 ;
75 [label="mse = 0.0\nsamples = 3\nvalue = 0.3"] ;
74 -> 75 ;
76 [label="mse = 0.0\nsamples = 3\nvalue = 0.3"] ;
74 -> 76 ;
77 [label="mse = 0.0\nsamples = 3\nvalue = 0.0"] ;
73 -> 77 ;
78 [label="mse = 0.0\nsamples = 5\nvalue = 0.4"] ;
72 -> 78 ;
79 [label="Temperature <= 0.5\nmse = 0.0\nsamples = 310\nvalue = 0.2"] ;
3 -> 79 ;
80 [label="WindDirectionMeridional <= 0.6\nmse = 0.1\nsamples = 185\nvalue = 0.2"] ;
79 -> 80 ;
81 [label="AirPressure <= 0.3\nmse = 0.0\nsamples = 67\nvalue = 0.1"] ;
80 -> 81 ;
82 [label="Humidity <= 0.9\nmse = 0.1\nsamples = 6\nvalue = 0.4"] ;
81 -> 82 ;
83 [label="mse = 0.1\nsamples = 3\nvalue = 0.7"] ;
82 -> 83 ;
84 [label="mse = 0.0\nsamples = 3\nvalue = 0.1"] ;
82 -> 84 ;
85 [label="Temperature <= 0.5\nmse = 0.0\nsamples = 61\nvalue = 0.1"] ;
81 -> 85 ;
86 [label="WindSpeed10m <= 0.2\nmse = 0.0\nsamples = 58\nvalue = 0.0"] ;
85 -> 86 ;
87 [label="WindSpeed100m <= 0.2\nmse = 0.0\nsamples = 7\nvalue = 0.0"] ;
86 -> 87 ;
88 [label="mse = 0.0\nsamples = 4\nvalue = 0.0"] ;
87 -> 88 ;
89 [label="mse = 0.0\nsamples = 3\nvalue = 0.0"] ;
87 -> 89 ;
90 [label="AirPressure <= 0.5\nmse = 0.0\nsamples = 51\nvalue = 0.1"] ;
86 -> 90 ;
91 [label="WindSpeed10m <= 0.2\nmse = 0.0\nsamples = 40\nvalue = 0.1"] ;
90 -> 91 ;
92 [label="mse = 0.0\nsamples = 3\nvalue = 0.2"] ;
91 -> 92 ;
93 [label="Humidity <= 0.9\nmse = 0.0\nsamples = 37\nvalue = 0.0"] ;
91 -> 93 ;
94 [label="ForecastingTime <= 38.5\nmse = 0.0\nsamples = 33\nvalue = 0.1"] ;
93 -> 94 ;
95 [label="WindSpeed10m <= 0.2\nmse = 0.0\nsamples = 23\nvalue = 0.1"] ;
94 -> 95 ;
96 [label="Temperature <= 0.3\nmse = 0.0\nsamples = 9\nvalue = 0.1"] ;
95 -> 96 ;
97 [label="mse = 0.0\nsamples = 4\nvalue = 0.1"] ;
96 -> 97 ;
98 [label="mse = 0.0\nsamples = 5\nvalue = 0.0"] ;
96 -> 98 ;
99 [label="Humidity <= 0.9\nmse = 0.0\nsamples = 14\nvalue = 0.1"] ;
95 -> 99 ;
100 [label="WindSpeed100m <= 0.3\nmse = 0.0\nsamples = 10\nvalue = 0.1"] ;
99 -> 100 ;
101 [label="WindDirectionZonal <= 0.7\nmse = 0.0\nsamples = 7\nvalue = 0.1"] ;
100 -> 101 ;
102 [label="mse = 0.0\nsamples = 4\nvalue = 0.1"] ;
101 -> 102 ;
103 [label="mse = 0.0\nsamples = 3\nvalue = 0.0"] ;
101 -> 103 ;
104 [label="mse = 0.0\nsamples = 3\nvalue = 0.1"] ;
100 -> 104 ;
105 [label="mse = 0.0\nsamples = 4\nvalue = 0.1"] ;
99 -> 105 ;
106 [label="Humidity <= 0.6\nmse = 0.0\nsamples = 10\nvalue = 0.0"] ;
94 -> 106 ;
107 [label="mse = 0.0\nsamples = 3\nvalue = 0.0"] ;
106 -> 107 ;
108 [label="Temperature <= 0.3\nmse = 0.0\nsamples = 7\nvalue = 0.0"] ;
106 -> 108 ;
109 [label="mse = 0.0\nsamples = 4\nvalue = 0.0"] ;
108 -> 109 ;
110 [label="mse = 0.0\nsamples = 3\nvalue = 0.0"] ;
108 -> 110 ;
111 [label="mse = 0.0\nsamples = 4\nvalue = 0.0"] ;
93 -> 111 ;
112 [label="WindSpeed100m <= 0.3\nmse = 0.0\nsamples = 11\nvalue = 0.0"] ;
90 -> 112 ;
113 [label="AirPressure <= 0.5\nmse = 0.0\nsamples = 8\nvalue = 0.0"] ;
112 -> 113 ;
114 [label="mse = 0.0\nsamples = 3\nvalue = 0.0"] ;
113 -> 114 ;
115 [label="mse = 0.0\nsamples = 5\nvalue = 0.0"] ;
113 -> 115 ;
116 [label="mse = 0.0\nsamples = 3\nvalue = 0.0"] ;
112 -> 116 ;
117 [label="mse = 0.0\nsamples = 3\nvalue = 0.2"] ;
85 -> 117 ;
118 [label="WindDirectionMeridional <= 0.8\nmse = 0.1\nsamples = 118\nvalue = 0.3"] ;
80 -> 118 ;
119 [label="WindDirectionZonal <= 0.0\nmse = 0.1\nsamples = 26\nvalue = 0.5"] ;
118 -> 119 ;
120 [label="Humidity <= 1.0\nmse = 0.0\nsamples = 6\nvalue = 0.3"] ;
119 -> 120 ;
121 [label="mse = 0.0\nsamples = 3\nvalue = 0.2"] ;
120 -> 121 ;
122 [label="mse = 0.0\nsamples = 3\nvalue = 0.4"] ;
120 -> 122 ;
123 [label="WindSpeed10m <= 0.2\nmse = 0.1\nsamples = 20\nvalue = 0.6"] ;
119 -> 123 ;
124 [label="WindSpeed100m <= 0.2\nmse = 0.1\nsamples = 16\nvalue = 0.6"] ;
123 -> 124 ;
125 [label="WindDirectionZonal <= 0.5\nmse = 0.0\nsamples = 10\nvalue = 0.8"] ;
124 -> 125 ;
126 [label="mse = 0.0\nsamples = 5\nvalue = 0.6"] ;
125 -> 126 ;
127 [label="mse = 0.0\nsamples = 5\nvalue = 0.8"] ;
125 -> 127 ;
128 [label="WindSpeed10m <= 0.2\nmse = 0.1\nsamples = 6\nvalue = 0.3"] ;
124 -> 128 ;
129 [label="mse = 0.1\nsamples = 3\nvalue = 0.3"] ;
128 -> 129 ;
130 [label="mse = 0.0\nsamples = 3\nvalue = 0.3"] ;
128 -> 130 ;
131 [label="mse = 0.1\nsamples = 4\nvalue = 0.4"] ;
123 -> 131 ;
132 [label="ForecastingTime <= 45.5\nmse = 0.0\nsamples = 92\nvalue = 0.2"] ;
118 -> 132 ;
133 [label="Humidity <= 1.0\nmse = 0.0\nsamples = 83\nvalue = 0.2"] ;
132 -> 133 ;
134 [label="WindSpeed10m <= 0.2\nmse = 0.0\nsamples = 68\nvalue = 0.2"] ;
133 -> 134 ;
135 [label="Temperature <= 0.5\nmse = 0.0\nsamples = 15\nvalue = 0.1"] ;
134 -> 135 ;
136 [label="Humidity <= 0.9\nmse = 0.0\nsamples = 12\nvalue = 0.1"] ;
135 -> 136 ;
137 [label="Humidity <= 0.9\nmse = 0.0\nsamples = 8\nvalue = 0.1"] ;
136 -> 137 ;
138 [label="mse = 0.0\nsamples = 5\nvalue = 0.1"] ;
137 -> 138 ;
139 [label="mse = 0.0\nsamples = 3\nvalue = 0.2"] ;
137 -> 139 ;
140 [label="mse = 0.0\nsamples = 4\nvalue = 0.0"] ;
136 -> 140 ;
141 [label="mse = 0.0\nsamples = 3\nvalue = 0.0"] ;
135 -> 141 ;
142 [label="Temperature <= 0.4\nmse = 0.0\nsamples = 53\nvalue = 0.2"] ;
134 -> 142 ;
143 [label="AirPressure <= 0.4\nmse = 0.0\nsamples = 9\nvalue = 0.0"] ;
142 -> 143 ;
144 [label="mse = 0.0\nsamples = 4\nvalue = 0.1"] ;
143 -> 144 ;
145 [label="mse = 0.0\nsamples = 5\nvalue = 0.0"] ;
143 -> 145 ;
146 [label="WindSpeed100m <= 0.2\nmse = 0.0\nsamples = 44\nvalue = 0.2"] ;
142 -> 146 ;
147 [label="WindSpeed10m <= 0.2\nmse = 0.0\nsamples = 9\nvalue = 0.5"] ;
146 -> 147 ;
148 [label="mse = 0.1\nsamples = 4\nvalue = 0.3"] ;
147 -> 148 ;
149 [label="mse = 0.0\nsamples = 5\nvalue = 0.6"] ;
147 -> 149 ;
150 [label="WindDirectionZonal <= 0.1\nmse = 0.0\nsamples = 35\nvalue = 0.2"] ;
146 -> 150 ;
151 [label="mse = 0.0\nsamples = 5\nvalue = 0.3"] ;
150 -> 151 ;
152 [label="Temperature <= 0.5\nmse = 0.0\nsamples = 30\nvalue = 0.2"] ;
150 -> 152 ;
153 [label="WindDirectionZonal <= 0.6\nmse = 0.0\nsamples = 7\nvalue = 0.3"] ;
152 -> 153 ;
154 [label="mse = 0.0\nsamples = 4\nvalue = 0.4"] ;
153 -> 154 ;
155 [label="mse = 0.0\nsamples = 3\nvalue = 0.2"] ;
153 -> 155 ;
156 [label="WindDirectionZonal <= 0.7\nmse = 0.0\nsamples = 23\nvalue = 0.1"] ;
152 -> 156 ;
157 [label="WindSpeed100m <= 0.2\nmse = 0.0\nsamples = 6\nvalue = 0.0"] ;
156 -> 157 ;
158 [label="mse = 0.0\nsamples = 3\nvalue = 0.0"] ;
157 -> 158 ;
159 [label="mse = 0.0\nsamples = 3\nvalue = 0.1"] ;
157 -> 159 ;
160 [label="WindSpeed10m <= 0.2\nmse = 0.0\nsamples = 17\nvalue = 0.1"] ;
156 -> 160 ;
161 [label="mse = 0.0\nsamples = 5\nvalue = 0.2"] ;
160 -> 161 ;
162 [label="WindSpeed100m <= 0.2\nmse = 0.0\nsamples = 12\nvalue = 0.1"] ;
160 -> 162 ;
163 [label="mse = 0.0\nsamples = 3\nvalue = 0.0"] ;
162 -> 163 ;
164 [label="WindDirectionZonal <= 0.8\nmse = 0.0\nsamples = 9\nvalue = 0.2"] ;
162 -> 164 ;
165 [label="WindSpeed100m <= 0.3\nmse = 0.0\nsamples = 6\nvalue = 0.1"] ;
164 -> 165 ;
166 [label="mse = 0.0\nsamples = 3\nvalue = 0.2"] ;
165 -> 166 ;
167 [label="mse = 0.0\nsamples = 3\nvalue = 0.1"] ;
165 -> 167 ;
168 [label="mse = 0.0\nsamples = 3\nvalue = 0.2"] ;
164 -> 168 ;
169 [label="AirPressure <= 0.4\nmse = 0.1\nsamples = 15\nvalue = 0.4"] ;
133 -> 169 ;
170 [label="Temperature <= 0.4\nmse = 0.0\nsamples = 10\nvalue = 0.3"] ;
169 -> 170 ;
171 [label="mse = 0.0\nsamples = 5\nvalue = 0.5"] ;
170 -> 171 ;
172 [label="mse = 0.0\nsamples = 5\nvalue = 0.1"] ;
170 -> 172 ;
173 [label="mse = 0.0\nsamples = 5\nvalue = 0.6"] ;
169 -> 173 ;
174 [label="WindDirectionMeridional <= 0.9\nmse = 0.1\nsamples = 9\nvalue = 0.4"] ;
132 -> 174 ;
175 [label="mse = 0.0\nsamples = 4\nvalue = 0.5"] ;
174 -> 175 ;
176 [label="mse = 0.0\nsamples = 5\nvalue = 0.2"] ;
174 -> 176 ;
177 [label="WindSpeed100m <= 0.2\nmse = 0.0\nsamples = 125\nvalue = 0.1"] ;
79 -> 177 ;
178 [label="Temperature <= 0.8\nmse = 0.0\nsamples = 37\nvalue = 0.0"] ;
177 -> 178 ;
179 [label="AirPressure <= 0.5\nmse = 0.0\nsamples = 31\nvalue = 0.0"] ;
178 -> 179 ;
180 [label="AirPressure <= 0.5\nmse = 0.0\nsamples = 28\nvalue = 0.0"] ;
179 -> 180 ;
181 [label="WindSpeed10m <= 0.2\nmse = 0.0\nsamples = 17\nvalue = 0.0"] ;
180 -> 181 ;
182 [label="mse = 0.0\nsamples = 3\nvalue = 0.1"] ;
181 -> 182 ;
183 [label="Humidity <= 0.5\nmse = 0.0\nsamples = 14\nvalue = 0.0"] ;
181 -> 183 ;
184 [label="mse = 0.0\nsamples = 5\nvalue = 0.0"] ;
183 -> 184 ;
185 [label="Temperature <= 0.7\nmse = 0.0\nsamples = 9\nvalue = 0.0"] ;
183 -> 185 ;
186 [label="ForecastingTime <= 33.5\nmse = 0.0\nsamples = 6\nvalue = 0.0"] ;
185 -> 186 ;
187 [label="mse = 0.0\nsamples = 3\nvalue = 0.0"] ;
186 -> 187 ;
188 [label="mse = 0.0\nsamples = 3\nvalue = 0.0"] ;
186 -> 188 ;
189 [label="mse = 0.0\nsamples = 3\nvalue = 0.0"] ;
185 -> 189 ;
190 [label="WindDirectionMeridional <= 0.5\nmse = 0.0\nsamples = 11\nvalue = 0.0"] ;
180 -> 190 ;
191 [label="mse = 0.0\nsamples = 5\nvalue = 0.0"] ;
190 -> 191 ;
192 [label="ForecastingTime <= 37.5\nmse = 0.0\nsamples = 6\nvalue = 0.0"] ;
190 -> 192 ;
193 [label="mse = 0.0\nsamples = 3\nvalue = 0.0"] ;
192 -> 193 ;
194 [label="mse = 0.0\nsamples = 3\nvalue = 0.0"] ;
192 -> 194 ;
195 [label="mse = 0.0\nsamples = 3\nvalue = 0.1"] ;
179 -> 195 ;
196 [label="Humidity <= 0.5\nmse = 0.0\nsamples = 6\nvalue = 0.0"] ;
178 -> 196 ;
197 [label="mse = 0.0\nsamples = 3\nvalue = 0.0"] ;
196 -> 197 ;
198 [label="mse = 0.0\nsamples = 3\nvalue = 0.0"] ;
196 -> 198 ;
199 [label="WindDirectionMeridional <= 0.3\nmse = 0.0\nsamples = 88\nvalue = 0.1"] ;
177 -> 199 ;
200 [label="WindSpeed100m <= 0.2\nmse = 0.0\nsamples = 43\nvalue = 0.1"] ;
199 -> 200 ;
201 [label="Temperature <= 0.6\nmse = 0.0\nsamples = 14\nvalue = 0.2"] ;
200 -> 201 ;
202 [label="mse = 0.0\nsamples = 4\nvalue = 0.3"] ;
201 -> 202 ;
203 [label="WindDirectionMeridional <= 0.2\nmse = 0.0\nsamples = 10\nvalue = 0.1"] ;
201 -> 203 ;
204 [label="Humidity <= 0.7\nmse = 0.0\nsamples = 6\nvalue = 0.0"] ;
203 -> 204 ;
205 [label="mse = 0.0\nsamples = 3\nvalue = 0.0"] ;
204 -> 205 ;
206 [label="mse = 0.0\nsamples = 3\nvalue = 0.1"] ;
204 -> 206 ;
207 [label="mse = 0.0\nsamples = 4\nvalue = 0.2"] ;
203 -> 207 ;
208 [label="WindDirectionZonal <= 0.1\nmse = 0.0\nsamples = 29\nvalue = 0.1"] ;
200 -> 208 ;
209 [label="mse = 0.0\nsamples = 5\nvalue = 0.2"] ;
208 -> 209 ;
210 [label="AirPressure <= 0.4\nmse = 0.0\nsamples = 24\nvalue = 0.1"] ;
208 -> 210 ;
211 [label="ForecastingTime <= 43.5\nmse = 0.0\nsamples = 11\nvalue = 0.0"] ;
210 -> 211 ;
212 [label="Humidity <= 0.6\nmse = 0.0\nsamples = 6\nvalue = 0.0"] ;
211 -> 212 ;
213 [label="mse = 0.0\nsamples = 3\nvalue = 0.0"] ;
212 -> 213 ;
214 [label="mse = 0.0\nsamples = 3\nvalue = 0.0"] ;
212 -> 214 ;
215 [label="mse = 0.0\nsamples = 5\nvalue = 0.1"] ;
211 -> 215 ;
216 [label="WindDirectionMeridional <= 0.0\nmse = 0.0\nsamples = 13\nvalue = 0.1"] ;
210 -> 216 ;
217 [label="mse = 0.0\nsamples = 3\nvalue = 0.2"] ;
216 -> 217 ;
218 [label="WindDirectionZonal <= 0.9\nmse = 0.0\nsamples = 10\nvalue = 0.1"] ;
216 -> 218 ;
219 [label="ForecastingTime <= 38.0\nmse = 0.0\nsamples = 7\nvalue = 0.1"] ;
218 -> 219 ;
220 [label="mse = 0.0\nsamples = 3\nvalue = 0.1"] ;
219 -> 220 ;
221 [label="mse = 0.0\nsamples = 4\nvalue = 0.1"] ;
219 -> 221 ;
222 [label="mse = 0.0\nsamples = 3\nvalue = 0.1"] ;
218 -> 222 ;
223 [label="WindSpeed10m <= 0.2\nmse = 0.0\nsamples = 45\nvalue = 0.1"] ;
199 -> 223 ;
224 [label="mse = 0.0\nsamples = 5\nvalue = 0.1"] ;
223 -> 224 ;
225 [label="Temperature <= 0.5\nmse = 0.0\nsamples = 40\nvalue = 0.0"] ;
223 -> 225 ;
226 [label="mse = 0.0\nsamples = 3\nvalue = 0.1"] ;
225 -> 226 ;
227 [label="WindDirectionZonal <= 0.6\nmse = 0.0\nsamples = 37\nvalue = 0.0"] ;
225 -> 227 ;
228 [label="AirPressure <= 0.4\nmse = 0.0\nsamples = 14\nvalue = 0.1"] ;
227 -> 228 ;
229 [label="mse = 0.0\nsamples = 5\nvalue = 0.1"] ;
228 -> 229 ;
230 [label="WindSpeed10m <= 0.2\nmse = 0.0\nsamples = 9\nvalue = 0.0"] ;
228 -> 230 ;
231 [label="ForecastingTime <= 29.0\nmse = 0.0\nsamples = 6\nvalue = 0.0"] ;
230 -> 231 ;
232 [label="mse = 0.0\nsamples = 3\nvalue = 0.0"] ;
231 -> 232 ;
233 [label="mse = 0.0\nsamples = 3\nvalue = 0.0"] ;
231 -> 233 ;
234 [label="mse = 0.0\nsamples = 3\nvalue = 0.1"] ;
230 -> 234 ;
235 [label="WindSpeed100m <= 0.2\nmse = 0.0\nsamples = 23\nvalue = 0.0"] ;
227 -> 235 ;
236 [label="ForecastingTime <= 34.5\nmse = 0.0\nsamples = 14\nvalue = 0.0"] ;
235 -> 236 ;
237 [label="AirPressure <= 0.5\nmse = 0.0\nsamples = 8\nvalue = 0.0"] ;
236 -> 237 ;
238 [label="mse = 0.0\nsamples = 3\nvalue = 0.0"] ;
237 -> 238 ;
239 [label="mse = 0.0\nsamples = 5\nvalue = 0.0"] ;
237 -> 239 ;
240 [label="WindDirectionZonal <= 1.0\nmse = 0.0\nsamples = 6\nvalue = 0.0"] ;
236 -> 240 ;
241 [label="mse = 0.0\nsamples = 3\nvalue = 0.0"] ;
240 -> 241 ;
242 [label="mse = 0.0\nsamples = 3\nvalue = 0.0"] ;
240 -> 242 ;
243 [label="WindSpeed100m <= 0.3\nmse = 0.0\nsamples = 9\nvalue = 0.1"] ;
235 -> 243 ;
244 [label="mse = 0.0\nsamples = 3\nvalue = 0.1"] ;
243 -> 244 ;
245 [label="WindDirectionMeridional <= 0.7\nmse = 0.0\nsamples = 6\nvalue = 0.0"] ;
243 -> 245 ;
246 [label="mse = 0.0\nsamples = 3\nvalue = 0.0"] ;
245 -> 246 ;
247 [label="mse = 0.0\nsamples = 3\nvalue = 0.0"] ;
245 -> 247 ;
248 [label="Temperature <= 0.5\nmse = 0.1\nsamples = 310\nvalue = 0.3"] ;
2 -> 248 ;
249 [label="Temperature <= 0.4\nmse = 0.1\nsamples = 184\nvalue = 0.3"] ;
248 -> 249 ;
250 [label="WindSpeed100m <= 0.3\nmse = 0.0\nsamples = 69\nvalue = 0.2"] ;
249 -> 250 ;
251 [label="AirPressure <= 0.4\nmse = 0.0\nsamples = 39\nvalue = 0.1"] ;
250 -> 251 ;
252 [label="WindDirectionMeridional <= 0.7\nmse = 0.0\nsamples = 12\nvalue = 0.2"] ;
251 -> 252 ;
253 [label="Temperature <= 0.4\nmse = 0.0\nsamples = 9\nvalue = 0.2"] ;
252 -> 253 ;
254 [label="mse = 0.0\nsamples = 5\nvalue = 0.2"] ;
253 -> 254 ;
255 [label="mse = 0.0\nsamples = 4\nvalue = 0.1"] ;
253 -> 255 ;
256 [label="mse = 0.0\nsamples = 3\nvalue = 0.3"] ;
252 -> 256 ;
257 [label="WindSpeed10m <= 0.2\nmse = 0.0\nsamples = 27\nvalue = 0.1"] ;
251 -> 257 ;
258 [label="WindSpeed100m <= 0.3\nmse = 0.0\nsamples = 10\nvalue = 0.1"] ;
257 -> 258 ;
259 [label="mse = 0.0\nsamples = 3\nvalue = 0.1"] ;
258 -> 259 ;
260 [label="WindDirectionZonal <= 0.4\nmse = 0.0\nsamples = 7\nvalue = 0.2"] ;
258 -> 260 ;
261 [label="mse = 0.0\nsamples = 4\nvalue = 0.1"] ;
260 -> 261 ;
262 [label="mse = 0.0\nsamples = 3\nvalue = 0.2"] ;
260 -> 262 ;
263 [label="WindDirectionMeridional <= 0.9\nmse = 0.0\nsamples = 17\nvalue = 0.1"] ;
257 -> 263 ;
264 [label="ForecastingTime <= 32.5\nmse = 0.0\nsamples = 14\nvalue = 0.1"] ;
263 -> 264 ;
265 [label="WindSpeed10m <= 0.2\nmse = 0.0\nsamples = 11\nvalue = 0.1"] ;
264 -> 265 ;
266 [label="mse = 0.0\nsamples = 5\nvalue = 0.1"] ;
265 -> 266 ;
267 [label="WindSpeed10m <= 0.3\nmse = 0.0\nsamples = 6\nvalue = 0.0"] ;
265 -> 267 ;
268 [label="mse = 0.0\nsamples = 3\nvalue = 0.0"] ;
267 -> 268 ;
269 [label="mse = 0.0\nsamples = 3\nvalue = 0.1"] ;
267 -> 269 ;
270 [label="mse = 0.0\nsamples = 3\nvalue = 0.1"] ;
264 -> 270 ;
271 [label="mse = 0.0\nsamples = 3\nvalue = 0.1"] ;
263 -> 271 ;
272 [label="Temperature <= 0.4\nmse = 0.0\nsamples = 30\nvalue = 0.3"] ;
250 -> 272 ;
273 [label="Humidity <= 0.7\nmse = 0.0\nsamples = 25\nvalue = 0.3"] ;
272 -> 273 ;
274 [label="mse = 0.0\nsamples = 3\nvalue = 0.3"] ;
273 -> 274 ;
275 [label="ForecastingTime <= 43.5\nmse = 0.0\nsamples = 22\nvalue = 0.3"] ;
273 -> 275 ;
276 [label="AirPressure <= 0.3\nmse = 0.0\nsamples = 16\nvalue = 0.2"] ;
275 -> 276 ;
277 [label="mse = 0.0\nsamples = 3\nvalue = 0.2"] ;
276 -> 277 ;
278 [label="WindDirectionMeridional <= 0.3\nmse = 0.0\nsamples = 13\nvalue = 0.2"] ;
276 -> 278 ;
279 [label="WindSpeed10m <= 0.3\nmse = 0.0\nsamples = 6\nvalue = 0.2"] ;
278 -> 279 ;
280 [label="mse = 0.0\nsamples = 3\nvalue = 0.2"] ;
279 -> 280 ;
281 [label="mse = 0.0\nsamples = 3\nvalue = 0.2"] ;
279 -> 281 ;
282 [label="WindSpeed100m <= 0.3\nmse = 0.0\nsamples = 7\nvalue = 0.3"] ;
278 -> 282 ;
283 [label="mse = 0.0\nsamples = 3\nvalue = 0.2"] ;
282 -> 283 ;
284 [label="mse = 0.0\nsamples = 4\nvalue = 0.3"] ;
282 -> 284 ;
285 [label="Humidity <= 0.8\nmse = 0.0\nsamples = 6\nvalue = 0.3"] ;
275 -> 285 ;
286 [label="mse = 0.0\nsamples = 3\nvalue = 0.2"] ;
285 -> 286 ;
287 [label="mse = 0.0\nsamples = 3\nvalue = 0.4"] ;
285 -> 287 ;
288 [label="mse = 0.0\nsamples = 5\nvalue = 0.5"] ;
272 -> 288 ;
289 [label="WindDirectionMeridional <= 1.0\nmse = 0.1\nsamples = 115\nvalue = 0.4"] ;
249 -> 289 ;
290 [label="WindSpeed10m <= 0.2\nmse = 0.1\nsamples = 95\nvalue = 0.4"] ;
289 -> 290 ;
291 [label="WindDirectionZonal <= 0.8\nmse = 0.1\nsamples = 37\nvalue = 0.5"] ;
290 -> 291 ;
292 [label="Temperature <= 0.5\nmse = 0.0\nsamples = 14\nvalue = 0.3"] ;
291 -> 292 ;
293 [label="WindSpeed100m <= 0.3\nmse = 0.0\nsamples = 11\nvalue = 0.3"] ;
292 -> 293 ;
294 [label="mse = 0.0\nsamples = 4\nvalue = 0.2"] ;
293 -> 294 ;
295 [label="Humidity <= 0.9\nmse = 0.0\nsamples = 7\nvalue = 0.4"] ;
293 -> 295 ;
296 [label="mse = 0.0\nsamples = 4\nvalue = 0.3"] ;
295 -> 296 ;
297 [label="mse = 0.0\nsamples = 3\nvalue = 0.4"] ;
295 -> 297 ;
298 [label="mse = 0.0\nsamples = 3\nvalue = 0.2"] ;
292 -> 298 ;
299 [label="AirPressure <= 0.4\nmse = 0.1\nsamples = 23\nvalue = 0.6"] ;
291 -> 299 ;
300 [label="AirPressure <= 0.3\nmse = 0.0\nsamples = 6\nvalue = 0.8"] ;
299 -> 300 ;
301 [label="mse = 0.0\nsamples = 3\nvalue = 0.9"] ;
300 -> 301 ;
302 [label="mse = 0.0\nsamples = 3\nvalue = 0.8"] ;
300 -> 302 ;
303 [label="WindDirectionMeridional <= 0.8\nmse = 0.1\nsamples = 17\nvalue = 0.5"] ;
299 -> 303 ;
304 [label="WindDirectionZonal <= 0.9\nmse = 0.0\nsamples = 9\nvalue = 0.4"] ;
303 -> 304 ;
305 [label="mse = 0.0\nsamples = 3\nvalue = 0.3"] ;
304 -> 305 ;
306 [label="AirPressure <= 0.4\nmse = 0.0\nsamples = 6\nvalue = 0.5"] ;
304 -> 306 ;
307 [label="mse = 0.0\nsamples = 3\nvalue = 0.3"] ;
306 -> 307 ;
308 [label="mse = 0.0\nsamples = 3\nvalue = 0.6"] ;
306 -> 308 ;
309 [label="ForecastingTime <= 42.5\nmse = 0.1\nsamples = 8\nvalue = 0.6"] ;
303 -> 309 ;
310 [label="mse = 0.0\nsamples = 4\nvalue = 0.4"] ;
309 -> 310 ;
311 [label="mse = 0.0\nsamples = 4\nvalue = 0.8"] ;
309 -> 311 ;
312 [label="WindSpeed10m <= 0.3\nmse = 0.1\nsamples = 58\nvalue = 0.3"] ;
290 -> 312 ;
313 [label="WindDirectionMeridional <= 0.9\nmse = 0.0\nsamples = 44\nvalue = 0.3"] ;
312 -> 313 ;
314 [label="Humidity <= 0.9\nmse = 0.0\nsamples = 29\nvalue = 0.2"] ;
313 -> 314 ;
315 [label="WindSpeed10m <= 0.3\nmse = 0.0\nsamples = 6\nvalue = 0.3"] ;
314 -> 315 ;
316 [label="mse = 0.0\nsamples = 3\nvalue = 0.4"] ;
315 -> 316 ;
317 [label="mse = 0.0\nsamples = 3\nvalue = 0.3"] ;
315 -> 317 ;
318 [label="AirPressure <= 0.5\nmse = 0.0\nsamples = 23\nvalue = 0.2"] ;
314 -> 318 ;
319 [label="AirPressure <= 0.4\nmse = 0.0\nsamples = 19\nvalue = 0.1"] ;
318 -> 319 ;
320 [label="WindDirectionZonal <= 0.9\nmse = 0.0\nsamples = 12\nvalue = 0.2"] ;
319 -> 320 ;
321 [label="WindSpeed10m <= 0.3\nmse = 0.0\nsamples = 7\nvalue = 0.2"] ;
320 -> 321 ;
322 [label="mse = 0.0\nsamples = 4\nvalue = 0.2"] ;
321 -> 322 ;
323 [label="mse = 0.0\nsamples = 3\nvalue = 0.2"] ;
321 -> 323 ;
324 [label="mse = 0.0\nsamples = 5\nvalue = 0.1"] ;
320 -> 324 ;
325 [label="Humidity <= 0.9\nmse = 0.0\nsamples = 7\nvalue = 0.1"] ;
319 -> 325 ;
326 [label="mse = 0.0\nsamples = 3\nvalue = 0.0"] ;
325 -> 326 ;
327 [label="mse = 0.0\nsamples = 4\nvalue = 0.1"] ;
325 -> 327 ;
328 [label="mse = 0.0\nsamples = 4\nvalue = 0.3"] ;
318 -> 328 ;
329 [label="WindDirectionZonal <= 0.8\nmse = 0.1\nsamples = 15\nvalue = 0.4"] ;
313 -> 329 ;
330 [label="Humidity <= 0.9\nmse = 0.0\nsamples = 12\nvalue = 0.3"] ;
329 -> 330 ;
331 [label="mse = 0.0\nsamples = 4\nvalue = 0.5"] ;
330 -> 331 ;
332 [label="Temperature <= 0.5\nmse = 0.0\nsamples = 8\nvalue = 0.2"] ;
330 -> 332 ;
333 [label="mse = 0.0\nsamples = 3\nvalue = 0.4"] ;
332 -> 333 ;
334 [label="mse = 0.0\nsamples = 5\nvalue = 0.1"] ;
332 -> 334 ;
335 [label="mse = 0.0\nsamples = 3\nvalue = 0.9"] ;
329 -> 335 ;
336 [label="WindDirectionZonal <= 1.0\nmse = 0.1\nsamples = 14\nvalue = 0.5"] ;
312 -> 336 ;
337 [label="Temperature <= 0.5\nmse = 0.1\nsamples = 10\nvalue = 0.3"] ;
336 -> 337 ;
338 [label="mse = 0.0\nsamples = 5\nvalue = 0.2"] ;
337 -> 338 ;
339 [label="mse = 0.1\nsamples = 5\nvalue = 0.4"] ;
337 -> 339 ;
340 [label="mse = 0.0\nsamples = 4\nvalue = 0.8"] ;
336 -> 340 ;
341 [label="WindSpeed100m <= 0.3\nmse = 0.1\nsamples = 20\nvalue = 0.6"] ;
289 -> 341 ;
342 [label="Humidity <= 0.9\nmse = 0.0\nsamples = 14\nvalue = 0.5"] ;
341 -> 342 ;
343 [label="Temperature <= 0.5\nmse = 0.0\nsamples = 9\nvalue = 0.6"] ;
342 -> 343 ;
344 [label="mse = 0.0\nsamples = 3\nvalue = 0.3"] ;
343 -> 344 ;
345 [label="WindDirectionZonal <= 0.5\nmse = 0.0\nsamples = 6\nvalue = 0.7"] ;
343 -> 345 ;
346 [label="mse = 0.0\nsamples = 3\nvalue = 0.6"] ;
345 -> 346 ;
347 [label="mse = 0.0\nsamples = 3\nvalue = 0.8"] ;
345 -> 347 ;
348 [label="mse = 0.0\nsamples = 5\nvalue = 0.4"] ;
342 -> 348 ;
349 [label="WindSpeed10m <= 0.2\nmse = 0.0\nsamples = 6\nvalue = 0.8"] ;
341 -> 349 ;
350 [label="mse = 0.0\nsamples = 3\nvalue = 0.9"] ;
349 -> 350 ;
351 [label="mse = 0.1\nsamples = 3\nvalue = 0.7"] ;
349 -> 351 ;
352 [label="WindDirectionMeridional <= 0.2\nmse = 0.0\nsamples = 126\nvalue = 0.2"] ;
248 -> 352 ;
353 [label="WindSpeed100m <= 0.3\nmse = 0.0\nsamples = 24\nvalue = 0.1"] ;
352 -> 353 ;
354 [label="ForecastingTime <= 32.5\nmse = 0.0\nsamples = 15\nvalue = 0.1"] ;
353 -> 354 ;
355 [label="Temperature <= 0.5\nmse = 0.0\nsamples = 6\nvalue = 0.0"] ;
354 -> 355 ;
356 [label="mse = 0.0\nsamples = 3\nvalue = 0.1"] ;
355 -> 356 ;
357 [label="mse = 0.0\nsamples = 3\nvalue = 0.0"] ;
355 -> 357 ;
358 [label="AirPressure <= 0.4\nmse = 0.0\nsamples = 9\nvalue = 0.1"] ;
354 -> 358 ;
359 [label="mse = 0.0\nsamples = 4\nvalue = 0.0"] ;
358 -> 359 ;
360 [label="mse = 0.0\nsamples = 5\nvalue = 0.1"] ;
358 -> 360 ;
361 [label="WindSpeed100m <= 0.3\nmse = 0.0\nsamples = 9\nvalue = 0.1"] ;
353 -> 361 ;
362 [label="WindSpeed100m <= 0.3\nmse = 0.0\nsamples = 6\nvalue = 0.1"] ;
361 -> 362 ;
363 [label="mse = 0.0\nsamples = 3\nvalue = 0.1"] ;
362 -> 363 ;
364 [label="mse = 0.0\nsamples = 3\nvalue = 0.1"] ;
362 -> 364 ;
365 [label="mse = 0.0\nsamples = 3\nvalue = 0.1"] ;
361 -> 365 ;
366 [label="AirPressure <= 0.4\nmse = 0.0\nsamples = 102\nvalue = 0.2"] ;
352 -> 366 ;
367 [label="Temperature <= 0.7\nmse = 0.0\nsamples = 34\nvalue = 0.1"] ;
366 -> 367 ;
368 [label="WindSpeed10m <= 0.3\nmse = 0.0\nsamples = 26\nvalue = 0.1"] ;
367 -> 368 ;
369 [label="AirPressure <= 0.4\nmse = 0.0\nsamples = 21\nvalue = 0.1"] ;
368 -> 369 ;
370 [label="WindDirectionMeridional <= 0.4\nmse = 0.0\nsamples = 15\nvalue = 0.0"] ;
369 -> 370 ;
371 [label="mse = 0.0\nsamples = 3\nvalue = 0.1"] ;
370 -> 371 ;
372 [label="WindSpeed10m <= 0.2\nmse = 0.0\nsamples = 12\nvalue = 0.0"] ;
370 -> 372 ;
373 [label="mse = 0.0\nsamples = 3\nvalue = 0.0"] ;
372 -> 373 ;
374 [label="ForecastingTime <= 27.5\nmse = 0.0\nsamples = 9\nvalue = 0.1"] ;
372 -> 374 ;
375 [label="mse = 0.0\nsamples = 3\nvalue = 0.1"] ;
374 -> 375 ;
376 [label="Humidity <= 0.9\nmse = 0.0\nsamples = 6\nvalue = 0.0"] ;
374 -> 376 ;
377 [label="mse = 0.0\nsamples = 3\nvalue = 0.0"] ;
376 -> 377 ;
378 [label="mse = 0.0\nsamples = 3\nvalue = 0.1"] ;
376 -> 378 ;
379 [label="WindSpeed10m <= 0.3\nmse = 0.0\nsamples = 6\nvalue = 0.1"] ;
369 -> 379 ;
380 [label="mse = 0.0\nsamples = 3\nvalue = 0.0"] ;
379 -> 380 ;
381 [label="mse = 0.0\nsamples = 3\nvalue = 0.2"] ;
379 -> 381 ;
382 [label="mse = 0.0\nsamples = 5\nvalue = 0.2"] ;
368 -> 382 ;
383 [label="Temperature <= 0.8\nmse = 0.0\nsamples = 8\nvalue = 0.2"] ;
367 -> 383 ;
384 [label="mse = 0.0\nsamples = 4\nvalue = 0.2"] ;
383 -> 384 ;
385 [label="mse = 0.0\nsamples = 4\nvalue = 0.1"] ;
383 -> 385 ;
386 [label="AirPressure <= 0.5\nmse = 0.0\nsamples = 68\nvalue = 0.2"] ;
366 -> 386 ;
387 [label="AirPressure <= 0.5\nmse = 0.0\nsamples = 38\nvalue = 0.3"] ;
386 -> 387 ;
388 [label="Humidity <= 0.8\nmse = 0.0\nsamples = 21\nvalue = 0.2"] ;
387 -> 388 ;
389 [label="WindSpeed100m <= 0.3\nmse = 0.0\nsamples = 13\nvalue = 0.3"] ;
388 -> 389 ;
390 [label="mse = 0.0\nsamples = 3\nvalue = 0.2"] ;
389 -> 390 ;
391 [label="WindSpeed100m <= 0.3\nmse = 0.0\nsamples = 10\nvalue = 0.3"] ;
389 -> 391 ;
392 [label="mse = 0.0\nsamples = 4\nvalue = 0.2"] ;
391 -> 392 ;
393 [label="Temperature <= 0.6\nmse = 0.0\nsamples = 6\nvalue = 0.3"] ;
391 -> 393 ;
394 [label="mse = 0.0\nsamples = 3\nvalue = 0.3"] ;
393 -> 394 ;
395 [label="mse = 0.0\nsamples = 3\nvalue = 0.3"] ;
393 -> 395 ;
396 [label="WindSpeed10m <= 0.3\nmse = 0.0\nsamples = 8\nvalue = 0.1"] ;
388 -> 396 ;
397 [label="mse = 0.0\nsamples = 3\nvalue = 0.1"] ;
396 -> 397 ;
398 [label="mse = 0.0\nsamples = 5\nvalue = 0.2"] ;
396 -> 398 ;
399 [label="WindSpeed100m <= 0.3\nmse = 0.0\nsamples = 17\nvalue = 0.3"] ;
387 -> 399 ;
400 [label="WindSpeed10m <= 0.2\nmse = 0.0\nsamples = 7\nvalue = 0.2"] ;
399 -> 400 ;
401 [label="mse = 0.0\nsamples = 3\nvalue = 0.3"] ;
400 -> 401 ;
402 [label="mse = 0.0\nsamples = 4\nvalue = 0.2"] ;
400 -> 402 ;
403 [label="AirPressure <= 0.5\nmse = 0.0\nsamples = 10\nvalue = 0.4"] ;
399 -> 403 ;
404 [label="mse = 0.0\nsamples = 3\nvalue = 0.5"] ;
403 -> 404 ;
405 [label="ForecastingTime <= 35.5\nmse = 0.0\nsamples = 7\nvalue = 0.3"] ;
403 -> 405 ;
406 [label="mse = 0.0\nsamples = 4\nvalue = 0.4"] ;
405 -> 406 ;
407 [label="mse = 0.0\nsamples = 3\nvalue = 0.3"] ;
405 -> 407 ;
408 [label="WindSpeed100m <= 0.3\nmse = 0.0\nsamples = 30\nvalue = 0.1"] ;
386 -> 408 ;
409 [label="Humidity <= 0.9\nmse = 0.0\nsamples = 10\nvalue = 0.1"] ;
408 -> 409 ;
410 [label="ForecastingTime <= 31.5\nmse = 0.0\nsamples = 7\nvalue = 0.1"] ;
409 -> 410 ;
411 [label="mse = 0.0\nsamples = 4\nvalue = 0.1"] ;
410 -> 411 ;
412 [label="mse = 0.0\nsamples = 3\nvalue = 0.0"] ;
410 -> 412 ;
413 [label="mse = 0.0\nsamples = 3\nvalue = 0.1"] ;
409 -> 413 ;
414 [label="Temperature <= 0.6\nmse = 0.0\nsamples = 20\nvalue = 0.1"] ;
408 -> 414 ;
415 [label="mse = 0.0\nsamples = 5\nvalue = 0.2"] ;
414 -> 415 ;
416 [label="WindDirectionZonal <= 0.9\nmse = 0.0\nsamples = 15\nvalue = 0.1"] ;
414 -> 416 ;
417 [label="WindSpeed100m <= 0.3\nmse = 0.0\nsamples = 8\nvalue = 0.1"] ;
416 -> 417 ;
418 [label="mse = 0.0\nsamples = 3\nvalue = 0.2"] ;
417 -> 418 ;
419 [label="mse = 0.0\nsamples = 5\nvalue = 0.1"] ;
417 -> 419 ;
420 [label="WindSpeed100m <= 0.3\nmse = 0.0\nsamples = 7\nvalue = 0.1"] ;
416 -> 420 ;
421 [label="mse = 0.0\nsamples = 4\nvalue = 0.1"] ;
420 -> 421 ;
422 [label="mse = 0.0\nsamples = 3\nvalue = 0.1"] ;
420 -> 422 ;
423 [label="AirPressure <= 0.3\nmse = 0.1\nsamples = 922\nvalue = 0.4"] ;
1 -> 423 ;
424 [label="Temperature <= 0.3\nmse = 0.0\nsamples = 233\nvalue = 0.3"] ;
423 -> 424 ;
425 [label="mse = 0.0\nsamples = 5\nvalue = 0.7"] ;
424 -> 425 ;
426 [label="WindDirectionZonal <= 0.8\nmse = 0.0\nsamples = 228\nvalue = 0.3"] ;
424 -> 426 ;
427 [label="Temperature <= 0.5\nmse = 0.0\nsamples = 149\nvalue = 0.3"] ;
426 -> 427 ;
428 [label="WindSpeed10m <= 0.7\nmse = 0.0\nsamples = 128\nvalue = 0.3"] ;
427 -> 428 ;
429 [label="WindSpeed10m <= 0.3\nmse = 0.0\nsamples = 125\nvalue = 0.3"] ;
428 -> 429 ;
430 [label="AirPressure <= 0.3\nmse = 0.0\nsamples = 21\nvalue = 0.2"] ;
429 -> 430 ;
431 [label="WindDirectionZonal <= 0.5\nmse = 0.0\nsamples = 17\nvalue = 0.2"] ;
430 -> 431 ;
432 [label="WindDirectionZonal <= 0.1\nmse = 0.0\nsamples = 13\nvalue = 0.2"] ;
431 -> 432 ;
433 [label="mse = 0.0\nsamples = 5\nvalue = 0.3"] ;
432 -> 433 ;
434 [label="ForecastingTime <= 39.5\nmse = 0.0\nsamples = 8\nvalue = 0.2"] ;
432 -> 434 ;
435 [label="mse = 0.0\nsamples = 4\nvalue = 0.2"] ;
434 -> 435 ;
436 [label="mse = 0.0\nsamples = 4\nvalue = 0.2"] ;
434 -> 436 ;
437 [label="mse = 0.0\nsamples = 4\nvalue = 0.1"] ;
431 -> 437 ;
438 [label="mse = 0.0\nsamples = 4\nvalue = 0.3"] ;
430 -> 438 ;
439 [label="Humidity <= 0.5\nmse = 0.0\nsamples = 104\nvalue = 0.3"] ;
429 -> 439 ;
440 [label="Temperature <= 0.5\nmse = 0.0\nsamples = 7\nvalue = 0.2"] ;
439 -> 440 ;
441 [label="mse = 0.0\nsamples = 4\nvalue = 0.2"] ;
440 -> 441 ;
442 [label="mse = 0.0\nsamples = 3\nvalue = 0.2"] ;
440 -> 442 ;
443 [label="WindDirectionZonal <= 0.7\nmse = 0.0\nsamples = 97\nvalue = 0.3"] ;
439 -> 443 ;
444 [label="Temperature <= 0.5\nmse = 0.0\nsamples = 92\nvalue = 0.4"] ;
443 -> 444 ;
445 [label="WindSpeed10m <= 0.5\nmse = 0.0\nsamples = 59\nvalue = 0.3"] ;
444 -> 445 ;
446 [label="WindSpeed10m <= 0.5\nmse = 0.0\nsamples = 37\nvalue = 0.3"] ;
445 -> 446 ;
447 [label="Humidity <= 0.7\nmse = 0.0\nsamples = 32\nvalue = 0.3"] ;
446 -> 447 ;
448 [label="mse = 0.0\nsamples = 3\nvalue = 0.5"] ;
447 -> 448 ;
449 [label="Humidity <= 0.8\nmse = 0.0\nsamples = 29\nvalue = 0.3"] ;
447 -> 449 ;
450 [label="AirPressure <= 0.3\nmse = 0.0\nsamples = 7\nvalue = 0.2"] ;
449 -> 450 ;
451 [label="mse = 0.0\nsamples = 4\nvalue = 0.2"] ;
450 -> 451 ;
452 [label="mse = 0.0\nsamples = 3\nvalue = 0.3"] ;
450 -> 452 ;
453 [label="WindSpeed10m <= 0.3\nmse = 0.0\nsamples = 22\nvalue = 0.3"] ;
449 -> 453 ;
454 [label="mse = 0.0\nsamples = 4\nvalue = 0.4"] ;
453 -> 454 ;
455 [label="ForecastingTime <= 28.5\nmse = 0.0\nsamples = 18\nvalue = 0.3"] ;
453 -> 455 ;
456 [label="mse = 0.0\nsamples = 5\nvalue = 0.2"] ;
455 -> 456 ;
457 [label="Temperature <= 0.4\nmse = 0.0\nsamples = 13\nvalue = 0.3"] ;
455 -> 457 ;
458 [label="mse = 0.0\nsamples = 5\nvalue = 0.3"] ;
457 -> 458 ;
459 [label="WindDirectionZonal <= 0.4\nmse = 0.0\nsamples = 8\nvalue = 0.3"] ;
457 -> 459 ;
460 [label="mse = 0.0\nsamples = 3\nvalue = 0.4"] ;
459 -> 460 ;
461 [label="mse = 0.0\nsamples = 5\nvalue = 0.3"] ;
459 -> 461 ;
462 [label="mse = 0.0\nsamples = 5\nvalue = 0.2"] ;
446 -> 462 ;
463 [label="WindSpeed100m <= 0.5\nmse = 0.0\nsamples = 22\nvalue = 0.4"] ;
445 -> 463 ;
464 [label="mse = 0.0\nsamples = 3\nvalue = 0.5"] ;
463 -> 464 ;
465 [label="AirPressure <= 0.3\nmse = 0.0\nsamples = 19\nvalue = 0.3"] ;
463 -> 465 ;
466 [label="ForecastingTime <= 29.0\nmse = 0.0\nsamples = 14\nvalue = 0.4"] ;
465 -> 466 ;
467 [label="WindDirectionMeridional <= 1.0\nmse = 0.0\nsamples = 8\nvalue = 0.5"] ;
466 -> 467 ;
468 [label="mse = 0.0\nsamples = 5\nvalue = 0.4"] ;
467 -> 468 ;
469 [label="mse = 0.0\nsamples = 3\nvalue = 0.5"] ;
467 -> 469 ;
470 [label="AirPressure <= 0.1\nmse = 0.0\nsamples = 6\nvalue = 0.3"] ;
466 -> 470 ;
471 [label="mse = 0.0\nsamples = 3\nvalue = 0.3"] ;
470 -> 471 ;
472 [label="mse = 0.0\nsamples = 3\nvalue = 0.3"] ;
470 -> 472 ;
473 [label="mse = 0.0\nsamples = 5\nvalue = 0.2"] ;
465 -> 473 ;
474 [label="AirPressure <= 0.1\nmse = 0.0\nsamples = 33\nvalue = 0.5"] ;
444 -> 474 ;
475 [label="mse = 0.0\nsamples = 4\nvalue = 0.1"] ;
474 -> 475 ;
476 [label="WindSpeed10m <= 0.6\nmse = 0.0\nsamples = 29\nvalue = 0.5"] ;
474 -> 476 ;
477 [label="ForecastingTime <= 38.5\nmse = 0.0\nsamples = 21\nvalue = 0.6"] ;
476 -> 477 ;
478 [label="WindDirectionZonal <= 0.5\nmse = 0.0\nsamples = 13\nvalue = 0.6"] ;
477 -> 478 ;
479 [label="Temperature <= 0.5\nmse = 0.0\nsamples = 6\nvalue = 0.5"] ;
478 -> 479 ;
480 [label="mse = 0.0\nsamples = 3\nvalue = 0.4"] ;
479 -> 480 ;
481 [label="mse = 0.0\nsamples = 3\nvalue = 0.7"] ;
479 -> 481 ;
482 [label="AirPressure <= 0.2\nmse = 0.0\nsamples = 7\nvalue = 0.7"] ;
478 -> 482 ;
483 [label="mse = 0.0\nsamples = 4\nvalue = 0.7"] ;
482 -> 483 ;
484 [label="mse = 0.0\nsamples = 3\nvalue = 0.6"] ;
482 -> 484 ;
485 [label="AirPressure <= 0.2\nmse = 0.0\nsamples = 8\nvalue = 0.5"] ;
477 -> 485 ;
486 [label="mse = 0.0\nsamples = 5\nvalue = 0.4"] ;
485 -> 486 ;
487 [label="mse = 0.0\nsamples = 3\nvalue = 0.6"] ;
485 -> 487 ;
488 [label="ForecastingTime <= 40.5\nmse = 0.0\nsamples = 8\nvalue = 0.3"] ;
476 -> 488 ;
489 [label="mse = 0.0\nsamples = 5\nvalue = 0.3"] ;
488 -> 489 ;
490 [label="mse = 0.0\nsamples = 3\nvalue = 0.4"] ;
488 -> 490 ;
491 [label="mse = 0.0\nsamples = 5\nvalue = 0.2"] ;
443 -> 491 ;
492 [label="mse = 0.0\nsamples = 3\nvalue = 0.1"] ;
428 -> 492 ;
493 [label="WindDirectionZonal <= 0.7\nmse = 0.0\nsamples = 21\nvalue = 0.1"] ;
427 -> 493 ;
494 [label="WindSpeed100m <= 0.5\nmse = 0.0\nsamples = 18\nvalue = 0.1"] ;
493 -> 494 ;
495 [label="mse = 0.0\nsamples = 3\nvalue = 0.3"] ;
494 -> 495 ;
496 [label="AirPressure <= 0.2\nmse = 0.0\nsamples = 15\nvalue = 0.1"] ;
494 -> 496 ;
497 [label="WindDirectionMeridional <= 1.0\nmse = 0.0\nsamples = 10\nvalue = 0.0"] ;
496 -> 497 ;
498 [label="WindSpeed10m <= 0.7\nmse = 0.0\nsamples = 7\nvalue = 0.0"] ;
497 -> 498 ;
499 [label="mse = -0.0\nsamples = 4\nvalue = 0.0"] ;
498 -> 499 ;
500 [label="mse = 0.0\nsamples = 3\nvalue = 0.0"] ;
498 -> 500 ;
501 [label="mse = 0.0\nsamples = 3\nvalue = 0.0"] ;
497 -> 501 ;
502 [label="mse = 0.0\nsamples = 5\nvalue = 0.2"] ;
496 -> 502 ;
503 [label="mse = 0.1\nsamples = 3\nvalue = 0.4"] ;
493 -> 503 ;
504 [label="Temperature <= 0.5\nmse = 0.1\nsamples = 79\nvalue = 0.4"] ;
426 -> 504 ;
505 [label="WindSpeed10m <= 0.3\nmse = 0.0\nsamples = 46\nvalue = 0.3"] ;
504 -> 505 ;
506 [label="WindSpeed10m <= 0.3\nmse = 0.0\nsamples = 6\nvalue = 0.5"] ;
505 -> 506 ;
507 [label="mse = 0.0\nsamples = 3\nvalue = 0.5"] ;
506 -> 507 ;
508 [label="mse = 0.0\nsamples = 3\nvalue = 0.4"] ;
506 -> 508 ;
509 [label="Humidity <= 0.9\nmse = 0.0\nsamples = 40\nvalue = 0.2"] ;
505 -> 509 ;
510 [label="WindDirectionZonal <= 0.9\nmse = 0.0\nsamples = 18\nvalue = 0.2"] ;
509 -> 510 ;
511 [label="WindSpeed100m <= 0.4\nmse = 0.0\nsamples = 11\nvalue = 0.2"] ;
510 -> 511 ;
512 [label="mse = 0.0\nsamples = 3\nvalue = 0.2"] ;
511 -> 512 ;
513 [label="Humidity <= 0.7\nmse = 0.0\nsamples = 8\nvalue = 0.1"] ;
511 -> 513 ;
514 [label="mse = 0.0\nsamples = 5\nvalue = 0.2"] ;
513 -> 514 ;
515 [label="mse = 0.0\nsamples = 3\nvalue = 0.1"] ;
513 -> 515 ;
516 [label="ForecastingTime <= 35.5\nmse = 0.0\nsamples = 7\nvalue = 0.2"] ;
510 -> 516 ;
517 [label="mse = 0.0\nsamples = 4\nvalue = 0.2"] ;
516 -> 517 ;
518 [label="mse = 0.0\nsamples = 3\nvalue = 0.2"] ;
516 -> 518 ;
519 [label="WindDirectionZonal <= 0.9\nmse = 0.0\nsamples = 22\nvalue = 0.3"] ;
509 -> 519 ;
520 [label="AirPressure <= 0.2\nmse = 0.0\nsamples = 14\nvalue = 0.3"] ;
519 -> 520 ;
521 [label="mse = 0.0\nsamples = 3\nvalue = 0.2"] ;
520 -> 521 ;
522 [label="WindSpeed100m <= 0.5\nmse = 0.0\nsamples = 11\nvalue = 0.3"] ;
520 -> 522 ;
523 [label="WindSpeed10m <= 0.4\nmse = 0.0\nsamples = 7\nvalue = 0.2"] ;
522 -> 523 ;
524 [label="mse = 0.0\nsamples = 4\nvalue = 0.3"] ;
523 -> 524 ;
525 [label="mse = 0.0\nsamples = 3\nvalue = 0.2"] ;
523 -> 525 ;
526 [label="mse = 0.0\nsamples = 4\nvalue = 0.4"] ;
522 -> 526 ;
527 [label="Temperature <= 0.4\nmse = 0.0\nsamples = 8\nvalue = 0.3"] ;
519 -> 527 ;
528 [label="mse = 0.0\nsamples = 5\nvalue = 0.4"] ;
527 -> 528 ;
529 [label="mse = 0.0\nsamples = 3\nvalue = 0.3"] ;
527 -> 529 ;
530 [label="WindSpeed10m <= 0.5\nmse = 0.0\nsamples = 33\nvalue = 0.6"] ;
504 -> 530 ;
531 [label="WindDirectionMeridional <= 0.9\nmse = 0.0\nsamples = 7\nvalue = 0.4"] ;
530 -> 531 ;
532 [label="mse = 0.0\nsamples = 4\nvalue = 0.5"] ;
531 -> 532 ;
533 [label="mse = 0.0\nsamples = 3\nvalue = 0.4"] ;
531 -> 533 ;
534 [label="ForecastingTime <= 37.5\nmse = 0.0\nsamples = 26\nvalue = 0.6"] ;
530 -> 534 ;
535 [label="ForecastingTime <= 30.5\nmse = 0.0\nsamples = 14\nvalue = 0.7"] ;
534 -> 535 ;
536 [label="WindDirectionMeridional <= 0.8\nmse = 0.0\nsamples = 6\nvalue = 0.7"] ;
535 -> 536 ;
537 [label="mse = 0.0\nsamples = 3\nvalue = 0.8"] ;
536 -> 537 ;
538 [label="mse = 0.0\nsamples = 3\nvalue = 0.6"] ;
536 -> 538 ;
539 [label="WindDirectionZonal <= 0.9\nmse = 0.0\nsamples = 8\nvalue = 0.8"] ;
535 -> 539 ;
540 [label="mse = 0.0\nsamples = 5\nvalue = 0.8"] ;
539 -> 540 ;
541 [label="mse = 0.0\nsamples = 3\nvalue = 0.7"] ;
539 -> 541 ;
542 [label="WindDirectionMeridional <= 0.9\nmse = 0.0\nsamples = 12\nvalue = 0.5"] ;
534 -> 542 ;
543 [label="WindDirectionZonal <= 0.9\nmse = 0.0\nsamples = 6\nvalue = 0.4"] ;
542 -> 543 ;
544 [label="mse = 0.0\nsamples = 3\nvalue = 0.3"] ;
543 -> 544 ;
545 [label="mse = 0.1\nsamples = 3\nvalue = 0.5"] ;
543 -> 545 ;
546 [label="Temperature <= 0.6\nmse = 0.0\nsamples = 6\nvalue = 0.6"] ;
542 -> 546 ;
547 [label="mse = 0.0\nsamples = 3\nvalue = 0.5"] ;
546 -> 547 ;
548 [label="mse = 0.0\nsamples = 3\nvalue = 0.7"] ;
546 -> 548 ;
549 [label="WindSpeed100m <= 0.6\nmse = 0.1\nsamples = 689\nvalue = 0.5"] ;
423 -> 549 ;
550 [label="WindDirectionMeridional <= 0.2\nmse = 0.1\nsamples = 636\nvalue = 0.4"] ;
549 -> 550 ;
551 [label="WindDirectionZonal <= 0.8\nmse = 0.0\nsamples = 38\nvalue = 0.2"] ;
550 -> 551 ;
552 [label="ForecastingTime <= 42.5\nmse = 0.0\nsamples = 28\nvalue = 0.2"] ;
551 -> 552 ;
553 [label="Humidity <= 0.5\nmse = 0.0\nsamples = 24\nvalue = 0.2"] ;
552 -> 553 ;
554 [label="mse = 0.0\nsamples = 5\nvalue = 0.1"] ;
553 -> 554 ;
555 [label="Humidity <= 0.8\nmse = 0.0\nsamples = 19\nvalue = 0.2"] ;
553 -> 555 ;
556 [label="WindDirectionZonal <= 0.4\nmse = 0.0\nsamples = 15\nvalue = 0.2"] ;
555 -> 556 ;
557 [label="Temperature <= 0.3\nmse = 0.0\nsamples = 7\nvalue = 0.2"] ;
556 -> 557 ;
558 [label="mse = 0.0\nsamples = 3\nvalue = 0.3"] ;
557 -> 558 ;
559 [label="mse = 0.0\nsamples = 4\nvalue = 0.2"] ;
557 -> 559 ;
560 [label="WindDirectionZonal <= 0.6\nmse = 0.0\nsamples = 8\nvalue = 0.3"] ;
556 -> 560 ;
561 [label="mse = 0.0\nsamples = 4\nvalue = 0.3"] ;
560 -> 561 ;
562 [label="mse = 0.0\nsamples = 4\nvalue = 0.2"] ;
560 -> 562 ;
563 [label="mse = 0.0\nsamples = 4\nvalue = 0.1"] ;
555 -> 563 ;
564 [label="mse = 0.0\nsamples = 4\nvalue = 0.3"] ;
552 -> 564 ;
565 [label="ForecastingTime <= 41.0\nmse = 0.0\nsamples = 10\nvalue = 0.1"] ;
551 -> 565 ;
566 [label="mse = 0.0\nsamples = 3\nvalue = 0.2"] ;
565 -> 566 ;
567 [label="WindDirectionMeridional <= 0.2\nmse = 0.0\nsamples = 7\nvalue = 0.0"] ;
565 -> 567 ;
568 [label="mse = 0.0\nsamples = 4\nvalue = 0.0"] ;
567 -> 568 ;
569 [label="mse = 0.0\nsamples = 3\nvalue = 0.1"] ;
567 -> 569 ;
570 [label="Temperature <= 0.5\nmse = 0.1\nsamples = 598\nvalue = 0.4"] ;
550 -> 570 ;
571 [label="WindSpeed100m <= 0.5\nmse = 0.1\nsamples = 290\nvalue = 0.5"] ;
570 -> 571 ;
572 [label="WindSpeed10m <= 0.3\nmse = 0.1\nsamples = 211\nvalue = 0.5"] ;
571 -> 572 ;
573 [label="Humidity <= 0.9\nmse = 0.1\nsamples = 70\nvalue = 0.6"] ;
572 -> 573 ;
574 [label="WindDirectionZonal <= 0.5\nmse = 0.1\nsamples = 30\nvalue = 0.5"] ;
573 -> 574 ;
575 [label="WindSpeed10m <= 0.3\nmse = 0.0\nsamples = 20\nvalue = 0.4"] ;
574 -> 575 ;
576 [label="WindSpeed100m <= 0.4\nmse = 0.0\nsamples = 15\nvalue = 0.3"] ;
575 -> 576 ;
577 [label="WindDirectionZonal <= 0.2\nmse = 0.0\nsamples = 9\nvalue = 0.3"] ;
576 -> 577 ;
578 [label="mse = 0.0\nsamples = 3\nvalue = 0.2"] ;
577 -> 578 ;
579 [label="WindSpeed10m <= 0.3\nmse = 0.0\nsamples = 6\nvalue = 0.3"] ;
577 -> 579 ;
580 [label="mse = 0.0\nsamples = 3\nvalue = 0.4"] ;
579 -> 580 ;
581 [label="mse = 0.0\nsamples = 3\nvalue = 0.3"] ;
579 -> 581 ;
582 [label="WindDirectionMeridional <= 0.9\nmse = 0.0\nsamples = 6\nvalue = 0.2"] ;
576 -> 582 ;
583 [label="mse = 0.0\nsamples = 3\nvalue = 0.3"] ;
582 -> 583 ;
584 [label="mse = 0.0\nsamples = 3\nvalue = 0.2"] ;
582 -> 584 ;
585 [label="mse = 0.1\nsamples = 5\nvalue = 0.6"] ;
575 -> 585 ;
586 [label="Humidity <= 0.9\nmse = 0.1\nsamples = 10\nvalue = 0.7"] ;
574 -> 586 ;
587 [label="mse = 0.0\nsamples = 5\nvalue = 0.3"] ;
586 -> 587 ;
588 [label="mse = 0.0\nsamples = 5\nvalue = 0.8"] ;
586 -> 588 ;
589 [label="WindDirectionZonal <= 0.9\nmse = 0.1\nsamples = 40\nvalue = 0.7"] ;
573 -> 589 ;
590 [label="AirPressure <= 0.4\nmse = 0.1\nsamples = 35\nvalue = 0.7"] ;
589 -> 590 ;
591 [label="AirPressure <= 0.4\nmse = 0.0\nsamples = 16\nvalue = 0.9"] ;
590 -> 591 ;
592 [label="ForecastingTime <= 33.5\nmse = 0.0\nsamples = 12\nvalue = 0.9"] ;
591 -> 592 ;
593 [label="WindSpeed10m <= 0.3\nmse = 0.0\nsamples = 7\nvalue = 0.8"] ;
592 -> 593 ;
594 [label="mse = 0.0\nsamples = 4\nvalue = 0.9"] ;
593 -> 594 ;
595 [label="mse = 0.0\nsamples = 3\nvalue = 0.8"] ;
593 -> 595 ;
596 [label="mse = 0.0\nsamples = 5\nvalue = 1.0"] ;
592 -> 596 ;
597 [label="mse = 0.0\nsamples = 4\nvalue = 0.8"] ;
591 -> 597 ;
598 [label="Humidity <= 0.9\nmse = 0.1\nsamples = 19\nvalue = 0.6"] ;
590 -> 598 ;
599 [label="WindDirectionMeridional <= 0.9\nmse = 0.1\nsamples = 12\nvalue = 0.5"] ;
598 -> 599 ;
600 [label="WindDirectionZonal <= 0.1\nmse = 0.0\nsamples = 7\nvalue = 0.3"] ;
599 -> 600 ;
601 [label="mse = 0.0\nsamples = 4\nvalue = 0.5"] ;
600 -> 601 ;
602 [label="mse = 0.0\nsamples = 3\nvalue = 0.2"] ;
600 -> 602 ;
603 [label="mse = 0.1\nsamples = 5\nvalue = 0.6"] ;
599 -> 603 ;
604 [label="WindSpeed100m <= 0.4\nmse = 0.0\nsamples = 7\nvalue = 0.8"] ;
598 -> 604 ;
605 [label="mse = 0.0\nsamples = 4\nvalue = 0.9"] ;
604 -> 605 ;
606 [label="mse = 0.0\nsamples = 3\nvalue = 0.8"] ;
604 -> 606 ;
607 [label="mse = 0.0\nsamples = 5\nvalue = 0.3"] ;
589 -> 607 ;
608 [label="Temperature <= 0.4\nmse = 0.1\nsamples = 141\nvalue = 0.4"] ;
572 -> 608 ;
609 [label="WindDirectionZonal <= 0.0\nmse = 0.0\nsamples = 51\nvalue = 0.3"] ;
608 -> 609 ;
610 [label="mse = 0.0\nsamples = 4\nvalue = 0.6"] ;
609 -> 610 ;
611 [label="AirPressure <= 0.4\nmse = 0.0\nsamples = 47\nvalue = 0.3"] ;
609 -> 611 ;
612 [label="AirPressure <= 0.4\nmse = 0.0\nsamples = 22\nvalue = 0.4"] ;
611 -> 612 ;
613 [label="AirPressure <= 0.3\nmse = 0.0\nsamples = 6\nvalue = 0.2"] ;
612 -> 613 ;
614 [label="mse = 0.0\nsamples = 3\nvalue = 0.2"] ;
613 -> 614 ;
615 [label="mse = 0.0\nsamples = 3\nvalue = 0.2"] ;
613 -> 615 ;
616 [label="WindSpeed100m <= 0.5\nmse = 0.0\nsamples = 16\nvalue = 0.4"] ;
612 -> 616 ;
617 [label="WindSpeed100m <= 0.5\nmse = 0.0\nsamples = 7\nvalue = 0.4"] ;
616 -> 617 ;
618 [label="mse = 0.0\nsamples = 3\nvalue = 0.4"] ;
617 -> 618 ;
619 [label="mse = 0.0\nsamples = 4\nvalue = 0.3"] ;
617 -> 619 ;
620 [label="WindSpeed10m <= 0.4\nmse = 0.0\nsamples = 9\nvalue = 0.5"] ;
616 -> 620 ;
621 [label="mse = 0.0\nsamples = 3\nvalue = 0.3"] ;
620 -> 621 ;
622 [label="WindDirectionZonal <= 0.5\nmse = 0.0\nsamples = 6\nvalue = 0.5"] ;
620 -> 622 ;
623 [label="mse = 0.0\nsamples = 3\nvalue = 0.7"] ;
622 -> 623 ;
624 [label="mse = 0.0\nsamples = 3\nvalue = 0.4"] ;
622 -> 624 ;
625 [label="WindDirectionMeridional <= 0.5\nmse = 0.0\nsamples = 25\nvalue = 0.2"] ;
611 -> 625 ;
626 [label="Temperature <= 0.4\nmse = 0.0\nsamples = 18\nvalue = 0.2"] ;
625 -> 626 ;
627 [label="ForecastingTime <= 38.5\nmse = 0.0\nsamples = 12\nvalue = 0.1"] ;
626 -> 627 ;
628 [label="Temperature <= 0.3\nmse = 0.0\nsamples = 9\nvalue = 0.2"] ;
627 -> 628 ;
629 [label="mse = 0.0\nsamples = 5\nvalue = 0.2"] ;
628 -> 629 ;
630 [label="mse = 0.0\nsamples = 4\nvalue = 0.1"] ;
628 -> 630 ;
631 [label="mse = 0.0\nsamples = 3\nvalue = 0.1"] ;
627 -> 631 ;
632 [label="WindDirectionZonal <= 0.0\nmse = 0.0\nsamples = 6\nvalue = 0.3"] ;
626 -> 632 ;
633 [label="mse = 0.0\nsamples = 3\nvalue = 0.2"] ;
632 -> 633 ;
634 [label="mse = 0.0\nsamples = 3\nvalue = 0.3"] ;
632 -> 634 ;
635 [label="WindDirectionZonal <= 0.0\nmse = 0.0\nsamples = 7\nvalue = 0.3"] ;
625 -> 635 ;
636 [label="mse = 0.0\nsamples = 3\nvalue = 0.3"] ;
635 -> 636 ;
637 [label="mse = 0.0\nsamples = 4\nvalue = 0.4"] ;
635 -> 637 ;
638 [label="AirPressure <= 0.5\nmse = 0.1\nsamples = 90\nvalue = 0.5"] ;
608 -> 638 ;
639 [label="WindSpeed10m <= 0.3\nmse = 0.1\nsamples = 70\nvalue = 0.4"] ;
638 -> 639 ;
640 [label="AirPressure <= 0.4\nmse = 0.1\nsamples = 7\nvalue = 0.6"] ;
639 -> 640 ;
641 [label="mse = 0.0\nsamples = 3\nvalue = 0.9"] ;
640 -> 641 ;
642 [label="mse = 0.0\nsamples = 4\nvalue = 0.5"] ;
640 -> 642 ;
643 [label="WindDirectionZonal <= 0.2\nmse = 0.1\nsamples = 63\nvalue = 0.4"] ;
639 -> 643 ;
644 [label="WindDirectionZonal <= 0.1\nmse = 0.1\nsamples = 25\nvalue = 0.5"] ;
643 -> 644 ;
645 [label="WindSpeed10m <= 0.4\nmse = 0.1\nsamples = 22\nvalue = 0.4"] ;
644 -> 645 ;
646 [label="AirPressure <= 0.4\nmse = 0.0\nsamples = 13\nvalue = 0.3"] ;
645 -> 646 ;
647 [label="AirPressure <= 0.4\nmse = 0.0\nsamples = 7\nvalue = 0.3"] ;
646 -> 647 ;
648 [label="mse = 0.0\nsamples = 4\nvalue = 0.3"] ;
647 -> 648 ;
649 [label="mse = 0.0\nsamples = 3\nvalue = 0.2"] ;
647 -> 649 ;
650 [label="Temperature <= 0.4\nmse = 0.0\nsamples = 6\nvalue = 0.3"] ;
646 -> 650 ;
651 [label="mse = 0.0\nsamples = 3\nvalue = 0.3"] ;
650 -> 651 ;
652 [label="mse = 0.0\nsamples = 3\nvalue = 0.3"] ;
650 -> 652 ;
653 [label="WindDirectionZonal <= 0.0\nmse = 0.1\nsamples = 9\nvalue = 0.6"] ;
645 -> 653 ;
654 [label="WindDirectionMeridional <= 0.5\nmse = 0.0\nsamples = 6\nvalue = 0.5"] ;
653 -> 654 ;
655 [label="mse = 0.0\nsamples = 3\nvalue = 0.6"] ;
654 -> 655 ;
656 [label="mse = 0.0\nsamples = 3\nvalue = 0.5"] ;
654 -> 656 ;
657 [label="mse = 0.1\nsamples = 3\nvalue = 0.8"] ;
653 -> 657 ;
658 [label="mse = 0.0\nsamples = 3\nvalue = 1.0"] ;
644 -> 658 ;
659 [label="WindSpeed100m <= 0.5\nmse = 0.1\nsamples = 38\nvalue = 0.3"] ;
643 -> 659 ;
660 [label="ForecastingTime <= 27.5\nmse = 0.1\nsamples = 33\nvalue = 0.4"] ;
659 -> 660 ;
661 [label="Humidity <= 0.9\nmse = 0.0\nsamples = 6\nvalue = 0.2"] ;
660 -> 661 ;
662 [label="mse = 0.0\nsamples = 3\nvalue = 0.2"] ;
661 -> 662 ;
663 [label="mse = 0.0\nsamples = 3\nvalue = 0.2"] ;
661 -> 663 ;
664 [label="AirPressure <= 0.4\nmse = 0.1\nsamples = 27\nvalue = 0.4"] ;
660 -> 664 ;
665 [label="WindDirectionZonal <= 0.4\nmse = 0.1\nsamples = 19\nvalue = 0.5"] ;
664 -> 665 ;
666 [label="AirPressure <= 0.3\nmse = 0.1\nsamples = 6\nvalue = 0.3"] ;
665 -> 666 ;
667 [label="mse = 0.0\nsamples = 3\nvalue = 0.2"] ;
666 -> 667 ;
668 [label="mse = 0.1\nsamples = 3\nvalue = 0.4"] ;
666 -> 668 ;
669 [label="WindDirectionZonal <= 0.9\nmse = 0.0\nsamples = 13\nvalue = 0.6"] ;
665 -> 669 ;
670 [label="Temperature <= 0.4\nmse = 0.1\nsamples = 7\nvalue = 0.7"] ;
669 -> 670 ;
671 [label="mse = 0.0\nsamples = 4\nvalue = 0.5"] ;
670 -> 671 ;
672 [label="mse = 0.0\nsamples = 3\nvalue = 0.9"] ;
670 -> 672 ;
673 [label="AirPressure <= 0.4\nmse = 0.0\nsamples = 6\nvalue = 0.4"] ;
669 -> 673 ;
674 [label="mse = 0.0\nsamples = 3\nvalue = 0.4"] ;
673 -> 674 ;
675 [label="mse = 0.0\nsamples = 3\nvalue = 0.5"] ;
673 -> 675 ;
676 [label="Temperature <= 0.4\nmse = 0.0\nsamples = 8\nvalue = 0.2"] ;
664 -> 676 ;
677 [label="mse = 0.0\nsamples = 5\nvalue = 0.3"] ;
676 -> 677 ;
678 [label="mse = 0.0\nsamples = 3\nvalue = 0.1"] ;
676 -> 678 ;
679 [label="mse = 0.0\nsamples = 5\nvalue = 0.2"] ;
659 -> 679 ;
680 [label="Humidity <= 0.8\nmse = 0.1\nsamples = 20\nvalue = 0.6"] ;
638 -> 680 ;
681 [label="WindSpeed10m <= 0.4\nmse = 0.0\nsamples = 15\nvalue = 0.7"] ;
680 -> 681 ;
682 [label="WindDirectionZonal <= 0.8\nmse = 0.0\nsamples = 6\nvalue = 0.9"] ;
681 -> 682 ;
683 [label="mse = 0.0\nsamples = 3\nvalue = 0.9"] ;
682 -> 683 ;
684 [label="mse = 0.0\nsamples = 3\nvalue = 0.9"] ;
682 -> 684 ;
685 [label="WindSpeed10m <= 0.5\nmse = 0.0\nsamples = 9\nvalue = 0.6"] ;
681 -> 685 ;
686 [label="WindSpeed100m <= 0.5\nmse = 0.0\nsamples = 6\nvalue = 0.6"] ;
685 -> 686 ;
687 [label="mse = 0.0\nsamples = 3\nvalue = 0.6"] ;
686 -> 687 ;
688 [label="mse = 0.0\nsamples = 3\nvalue = 0.7"] ;
686 -> 688 ;
689 [label="mse = 0.0\nsamples = 3\nvalue = 0.6"] ;
685 -> 689 ;
690 [label="mse = 0.1\nsamples = 5\nvalue = 0.3"] ;
680 -> 690 ;
691 [label="WindDirectionZonal <= 0.2\nmse = 0.1\nsamples = 79\nvalue = 0.7"] ;
571 -> 691 ;
692 [label="AirPressure <= 0.4\nmse = 0.0\nsamples = 50\nvalue = 0.7"] ;
691 -> 692 ;
693 [label="AirPressure <= 0.3\nmse = 0.0\nsamples = 26\nvalue = 0.8"] ;
692 -> 693 ;
694 [label="mse = 0.0\nsamples = 4\nvalue = 0.9"] ;
693 -> 694 ;
695 [label="Temperature <= 0.3\nmse = 0.0\nsamples = 22\nvalue = 0.8"] ;
693 -> 695 ;
696 [label="Humidity <= 0.8\nmse = 0.0\nsamples = 7\nvalue = 0.7"] ;
695 -> 696 ;
697 [label="mse = 0.0\nsamples = 3\nvalue = 0.7"] ;
696 -> 697 ;
698 [label="mse = 0.0\nsamples = 4\nvalue = 0.7"] ;
696 -> 698 ;
699 [label="WindSpeed10m <= 0.5\nmse = 0.0\nsamples = 15\nvalue = 0.8"] ;
695 -> 699 ;
700 [label="WindDirectionZonal <= 0.1\nmse = 0.0\nsamples = 12\nvalue = 0.8"] ;
699 -> 700 ;
701 [label="WindDirectionMeridional <= 0.5\nmse = 0.0\nsamples = 9\nvalue = 0.9"] ;
700 -> 701 ;
702 [label="mse = 0.0\nsamples = 3\nvalue = 0.9"] ;
701 -> 702 ;
703 [label="Temperature <= 0.4\nmse = 0.0\nsamples = 6\nvalue = 0.9"] ;
701 -> 703 ;
704 [label="mse = 0.0\nsamples = 3\nvalue = 0.9"] ;
703 -> 704 ;
705 [label="mse = 0.0\nsamples = 3\nvalue = 0.9"] ;
703 -> 705 ;
706 [label="mse = 0.0\nsamples = 3\nvalue = 0.8"] ;
700 -> 706 ;
707 [label="mse = 0.0\nsamples = 3\nvalue = 0.7"] ;
699 -> 707 ;
708 [label="WindDirectionMeridional <= 0.5\nmse = 0.0\nsamples = 24\nvalue = 0.7"] ;
692 -> 708 ;
709 [label="WindSpeed10m <= 0.6\nmse = 0.0\nsamples = 14\nvalue = 0.7"] ;
708 -> 709 ;
710 [label="AirPressure <= 0.5\nmse = 0.0\nsamples = 10\nvalue = 0.7"] ;
709 -> 710 ;
711 [label="mse = 0.0\nsamples = 3\nvalue = 0.6"] ;
710 -> 711 ;
712 [label="AirPressure <= 0.5\nmse = 0.0\nsamples = 7\nvalue = 0.7"] ;
710 -> 712 ;
713 [label="mse = 0.0\nsamples = 3\nvalue = 0.7"] ;
712 -> 713 ;
714 [label="mse = 0.0\nsamples = 4\nvalue = 0.7"] ;
712 -> 714 ;
715 [label="mse = 0.0\nsamples = 4\nvalue = 0.8"] ;
709 -> 715 ;
716 [label="ForecastingTime <= 32.0\nmse = 0.0\nsamples = 10\nvalue = 0.6"] ;
708 -> 716 ;
717 [label="WindDirectionMeridional <= 0.6\nmse = 0.0\nsamples = 6\nvalue = 0.5"] ;
716 -> 717 ;
718 [label="mse = 0.0\nsamples = 3\nvalue = 0.5"] ;
717 -> 718 ;
719 [label="mse = 0.0\nsamples = 3\nvalue = 0.6"] ;
717 -> 719 ;
720 [label="mse = 0.0\nsamples = 4\nvalue = 0.8"] ;
716 -> 720 ;
721 [label="AirPressure <= 0.4\nmse = 0.1\nsamples = 29\nvalue = 0.5"] ;
691 -> 721 ;
722 [label="ForecastingTime <= 28.5\nmse = 0.0\nsamples = 11\nvalue = 0.7"] ;
721 -> 722 ;
723 [label="mse = 0.0\nsamples = 4\nvalue = 0.9"] ;
722 -> 723 ;
724 [label="Temperature <= 0.4\nmse = 0.0\nsamples = 7\nvalue = 0.6"] ;
722 -> 724 ;
725 [label="mse = 0.0\nsamples = 4\nvalue = 0.5"] ;
724 -> 725 ;
726 [label="mse = 0.0\nsamples = 3\nvalue = 0.6"] ;
724 -> 726 ;
727 [label="Humidity <= 0.9\nmse = 0.1\nsamples = 18\nvalue = 0.4"] ;
721 -> 727 ;
728 [label="ForecastingTime <= 28.5\nmse = 0.0\nsamples = 15\nvalue = 0.3"] ;
727 -> 728 ;
729 [label="mse = 0.0\nsamples = 4\nvalue = 0.2"] ;
728 -> 729 ;
730 [label="WindDirectionMeridional <= 0.8\nmse = 0.0\nsamples = 11\nvalue = 0.5"] ;
728 -> 730 ;
731 [label="mse = 0.1\nsamples = 3\nvalue = 0.7"] ;
730 -> 731 ;
732 [label="ForecastingTime <= 43.5\nmse = 0.0\nsamples = 8\nvalue = 0.4"] ;
730 -> 732 ;
733 [label="mse = 0.0\nsamples = 5\nvalue = 0.4"] ;
732 -> 733 ;
734 [label="mse = 0.0\nsamples = 3\nvalue = 0.4"] ;
732 -> 734 ;
735 [label="mse = 0.1\nsamples = 3\nvalue = 0.7"] ;
727 -> 735 ;
736 [label="WindDirectionMeridional <= 0.5\nmse = 0.1\nsamples = 308\nvalue = 0.4"] ;
570 -> 736 ;
737 [label="WindSpeed10m <= 0.4\nmse = 0.1\nsamples = 41\nvalue = 0.7"] ;
736 -> 737 ;
738 [label="WindDirectionZonal <= 0.9\nmse = 0.1\nsamples = 24\nvalue = 0.5"] ;
737 -> 738 ;
739 [label="AirPressure <= 0.4\nmse = 0.1\nsamples = 18\nvalue = 0.6"] ;
738 -> 739 ;
740 [label="mse = 0.0\nsamples = 3\nvalue = 0.3"] ;
739 -> 740 ;
741 [label="ForecastingTime <= 40.5\nmse = 0.1\nsamples = 15\nvalue = 0.6"] ;
739 -> 741 ;
742 [label="Humidity <= 0.7\nmse = 0.0\nsamples = 7\nvalue = 0.9"] ;
741 -> 742 ;
743 [label="mse = 0.0\nsamples = 3\nvalue = 0.8"] ;
742 -> 743 ;
744 [label="mse = 0.0\nsamples = 4\nvalue = 1.0"] ;
742 -> 744 ;
745 [label="ForecastingTime <= 42.0\nmse = 0.0\nsamples = 8\nvalue = 0.4"] ;
741 -> 745 ;
746 [label="mse = 0.0\nsamples = 3\nvalue = 0.6"] ;
745 -> 746 ;
747 [label="mse = 0.0\nsamples = 5\nvalue = 0.4"] ;
745 -> 747 ;
748 [label="AirPressure <= 0.5\nmse = 0.0\nsamples = 6\nvalue = 0.3"] ;
738 -> 748 ;
749 [label="mse = 0.0\nsamples = 3\nvalue = 0.3"] ;
748 -> 749 ;
750 [label="mse = 0.0\nsamples = 3\nvalue = 0.2"] ;
748 -> 750 ;
751 [label="WindSpeed10m <= 0.5\nmse = 0.0\nsamples = 17\nvalue = 0.9"] ;
737 -> 751 ;
752 [label="mse = 0.0\nsamples = 4\nvalue = 0.7"] ;
751 -> 752 ;
753 [label="WindSpeed10m <= 0.5\nmse = 0.0\nsamples = 13\nvalue = 0.9"] ;
751 -> 753 ;
754 [label="mse = 0.0\nsamples = 5\nvalue = 0.9"] ;
753 -> 754 ;
755 [label="AirPressure <= 0.4\nmse = 0.0\nsamples = 8\nvalue = 0.9"] ;
753 -> 755 ;
756 [label="mse = 0.0\nsamples = 3\nvalue = 0.9"] ;
755 -> 756 ;
757 [label="mse = 0.0\nsamples = 5\nvalue = 0.9"] ;
755 -> 757 ;
758 [label="ForecastingTime <= 30.5\nmse = 0.1\nsamples = 267\nvalue = 0.3"] ;
736 -> 758 ;
759 [label="Humidity <= 0.9\nmse = 0.0\nsamples = 87\nvalue = 0.2"] ;
758 -> 759 ;
760 [label="Temperature <= 0.6\nmse = 0.0\nsamples = 39\nvalue = 0.2"] ;
759 -> 760 ;
761 [label="Temperature <= 0.5\nmse = 0.0\nsamples = 29\nvalue = 0.1"] ;
760 -> 761 ;
762 [label="WindSpeed10m <= 0.5\nmse = 0.1\nsamples = 14\nvalue = 0.2"] ;
761 -> 762 ;
763 [label="Humidity <= 0.8\nmse = 0.0\nsamples = 11\nvalue = 0.1"] ;
762 -> 763 ;
764 [label="WindSpeed10m <= 0.4\nmse = 0.0\nsamples = 6\nvalue = 0.2"] ;
763 -> 764 ;
765 [label="mse = 0.0\nsamples = 3\nvalue = 0.3"] ;
764 -> 765 ;
766 [label="mse = 0.0\nsamples = 3\nvalue = 0.1"] ;
764 -> 766 ;
767 [label="mse = 0.0\nsamples = 5\nvalue = 0.0"] ;
763 -> 767 ;
768 [label="mse = 0.1\nsamples = 3\nvalue = 0.5"] ;
762 -> 768 ;
769 [label="WindSpeed100m <= 0.5\nmse = 0.0\nsamples = 15\nvalue = 0.1"] ;
761 -> 769 ;
770 [label="WindSpeed10m <= 0.4\nmse = 0.0\nsamples = 6\nvalue = 0.1"] ;
769 -> 770 ;
771 [label="mse = 0.0\nsamples = 3\nvalue = 0.2"] ;
770 -> 771 ;
772 [label="mse = 0.0\nsamples = 3\nvalue = 0.1"] ;
770 -> 772 ;
773 [label="WindDirectionZonal <= 0.9\nmse = 0.0\nsamples = 9\nvalue = 0.0"] ;
769 -> 773 ;
774 [label="mse = 0.0\nsamples = 3\nvalue = 0.0"] ;
773 -> 774 ;
775 [label="Temperature <= 0.6\nmse = 0.0\nsamples = 6\nvalue = 0.0"] ;
773 -> 775 ;
776 [label="mse = 0.0\nsamples = 3\nvalue = 0.0"] ;
775 -> 776 ;
777 [label="mse = 0.0\nsamples = 3\nvalue = 0.0"] ;
775 -> 777 ;
778 [label="Temperature <= 0.7\nmse = 0.0\nsamples = 10\nvalue = 0.3"] ;
760 -> 778 ;
779 [label="mse = 0.0\nsamples = 3\nvalue = 0.6"] ;
778 -> 779 ;
780 [label="Humidity <= 0.6\nmse = 0.0\nsamples = 7\nvalue = 0.3"] ;
778 -> 780 ;
781 [label="mse = 0.0\nsamples = 3\nvalue = 0.3"] ;
780 -> 781 ;
782 [label="mse = 0.0\nsamples = 4\nvalue = 0.3"] ;
780 -> 782 ;
783 [label="WindDirectionZonal <= 0.8\nmse = 0.0\nsamples = 48\nvalue = 0.3"] ;
759 -> 783 ;
784 [label="Humidity <= 0.9\nmse = 0.0\nsamples = 29\nvalue = 0.2"] ;
783 -> 784 ;
785 [label="WindDirectionZonal <= 0.7\nmse = 0.0\nsamples = 23\nvalue = 0.2"] ;
784 -> 785 ;
786 [label="WindSpeed100m <= 0.4\nmse = 0.0\nsamples = 6\nvalue = 0.1"] ;
785 -> 786 ;
787 [label="mse = 0.0\nsamples = 3\nvalue = 0.0"] ;
786 -> 787 ;
788 [label="mse = 0.0\nsamples = 3\nvalue = 0.1"] ;
786 -> 788 ;
789 [label="Humidity <= 0.9\nmse = 0.0\nsamples = 17\nvalue = 0.2"] ;
785 -> 789 ;
790 [label="WindDirectionMeridional <= 0.9\nmse = 0.0\nsamples = 14\nvalue = 0.2"] ;
789 -> 790 ;
791 [label="Temperature <= 0.5\nmse = 0.0\nsamples = 10\nvalue = 0.2"] ;
790 -> 791 ;
792 [label="mse = 0.0\nsamples = 3\nvalue = 0.2"] ;
791 -> 792 ;
793 [label="Humidity <= 0.9\nmse = 0.0\nsamples = 7\nvalue = 0.2"] ;
791 -> 793 ;
794 [label="mse = 0.0\nsamples = 4\nvalue = 0.3"] ;
793 -> 794 ;
795 [label="mse = 0.0\nsamples = 3\nvalue = 0.2"] ;
793 -> 795 ;
796 [label="mse = 0.0\nsamples = 4\nvalue = 0.2"] ;
790 -> 796 ;
797 [label="mse = 0.1\nsamples = 3\nvalue = 0.4"] ;
789 -> 797 ;
798 [label="WindDirectionMeridional <= 0.9\nmse = 0.0\nsamples = 6\nvalue = 0.1"] ;
784 -> 798 ;
799 [label="mse = 0.0\nsamples = 3\nvalue = 0.2"] ;
798 -> 799 ;
800 [label="mse = 0.0\nsamples = 3\nvalue = 0.0"] ;
798 -> 800 ;
801 [label="WindDirectionMeridional <= 0.9\nmse = 0.0\nsamples = 19\nvalue = 0.4"] ;
783 -> 801 ;
802 [label="AirPressure <= 0.5\nmse = 0.0\nsamples = 14\nvalue = 0.4"] ;
801 -> 802 ;
803 [label="AirPressure <= 0.4\nmse = 0.0\nsamples = 11\nvalue = 0.3"] ;
802 -> 803 ;
804 [label="mse = 0.0\nsamples = 3\nvalue = 0.4"] ;
803 -> 804 ;
805 [label="WindDirectionMeridional <= 0.7\nmse = 0.0\nsamples = 8\nvalue = 0.3"] ;
803 -> 805 ;
806 [label="mse = 0.0\nsamples = 4\nvalue = 0.3"] ;
805 -> 806 ;
807 [label="mse = 0.0\nsamples = 4\nvalue = 0.2"] ;
805 -> 807 ;
808 [label="mse = 0.0\nsamples = 3\nvalue = 0.5"] ;
802 -> 808 ;
809 [label="mse = 0.0\nsamples = 5\nvalue = 0.5"] ;
801 -> 809 ;
810 [label="WindSpeed100m <= 0.6\nmse = 0.1\nsamples = 180\nvalue = 0.4"] ;
758 -> 810 ;
811 [label="Humidity <= 0.4\nmse = 0.1\nsamples = 174\nvalue = 0.4"] ;
810 -> 811 ;
812 [label="Temperature <= 0.8\nmse = 0.0\nsamples = 9\nvalue = 0.2"] ;
811 -> 812 ;
813 [label="WindSpeed100m <= 0.4\nmse = 0.0\nsamples = 6\nvalue = 0.1"] ;
812 -> 813 ;
814 [label="mse = 0.0\nsamples = 3\nvalue = 0.1"] ;
813 -> 814 ;
815 [label="mse = 0.0\nsamples = 3\nvalue = 0.0"] ;
813 -> 815 ;
816 [label="mse = 0.0\nsamples = 3\nvalue = 0.3"] ;
812 -> 816 ;
817 [label="WindSpeed10m <= 0.4\nmse = 0.1\nsamples = 165\nvalue = 0.4"] ;
811 -> 817 ;
818 [label="WindSpeed100m <= 0.4\nmse = 0.0\nsamples = 67\nvalue = 0.3"] ;
817 -> 818 ;
819 [label="mse = 0.0\nsamples = 3\nvalue = 0.5"] ;
818 -> 819 ;
820 [label="Humidity <= 0.9\nmse = 0.0\nsamples = 64\nvalue = 0.2"] ;
818 -> 820 ;
821 [label="AirPressure <= 0.5\nmse = 0.0\nsamples = 60\nvalue = 0.2"] ;
820 -> 821 ;
822 [label="WindDirectionMeridional <= 1.0\nmse = 0.0\nsamples = 39\nvalue = 0.2"] ;
821 -> 822 ;
823 [label="WindDirectionZonal <= 0.8\nmse = 0.0\nsamples = 33\nvalue = 0.3"] ;
822 -> 823 ;
824 [label="WindSpeed10m <= 0.3\nmse = 0.0\nsamples = 24\nvalue = 0.2"] ;
823 -> 824 ;
825 [label="mse = 0.0\nsamples = 4\nvalue = 0.1"] ;
824 -> 825 ;
826 [label="ForecastingTime <= 44.5\nmse = 0.0\nsamples = 20\nvalue = 0.3"] ;
824 -> 826 ;
827 [label="WindSpeed100m <= 0.4\nmse = 0.0\nsamples = 15\nvalue = 0.3"] ;
826 -> 827 ;
828 [label="mse = 0.0\nsamples = 3\nvalue = 0.2"] ;
827 -> 828 ;
829 [label="Humidity <= 0.7\nmse = 0.0\nsamples = 12\nvalue = 0.3"] ;
827 -> 829 ;
830 [label="mse = 0.0\nsamples = 3\nvalue = 0.2"] ;
829 -> 830 ;
831 [label="WindSpeed10m <= 0.4\nmse = 0.0\nsamples = 9\nvalue = 0.4"] ;
829 -> 831 ;
832 [label="mse = 0.0\nsamples = 5\nvalue = 0.4"] ;
831 -> 832 ;
833 [label="mse = 0.0\nsamples = 4\nvalue = 0.3"] ;
831 -> 833 ;
834 [label="mse = 0.0\nsamples = 5\nvalue = 0.1"] ;
826 -> 834 ;
835 [label="Temperature <= 0.5\nmse = 0.1\nsamples = 9\nvalue = 0.3"] ;
823 -> 835 ;
836 [label="WindSpeed100m <= 0.4\nmse = 0.1\nsamples = 6\nvalue = 0.4"] ;
835 -> 836 ;
837 [label="mse = 0.1\nsamples = 3\nvalue = 0.5"] ;
836 -> 837 ;
838 [label="mse = 0.0\nsamples = 3\nvalue = 0.4"] ;
836 -> 838 ;
839 [label="mse = 0.0\nsamples = 3\nvalue = 0.2"] ;
835 -> 839 ;
840 [label="Temperature <= 0.6\nmse = 0.0\nsamples = 6\nvalue = 0.1"] ;
822 -> 840 ;
841 [label="mse = 0.0\nsamples = 3\nvalue = 0.1"] ;
840 -> 841 ;
842 [label="mse = 0.0\nsamples = 3\nvalue = 0.4"] ;
840 -> 842 ;
843 [label="ForecastingTime <= 42.5\nmse = 0.0\nsamples = 21\nvalue = 0.2"] ;
821 -> 843 ;
844 [label="Humidity <= 0.8\nmse = 0.0\nsamples = 12\nvalue = 0.2"] ;
843 -> 844 ;
845 [label="ForecastingTime <= 34.5\nmse = 0.0\nsamples = 8\nvalue = 0.2"] ;
844 -> 845 ;
846 [label="mse = 0.0\nsamples = 4\nvalue = 0.2"] ;
845 -> 846 ;
847 [label="mse = 0.0\nsamples = 4\nvalue = 0.2"] ;
845 -> 847 ;
848 [label="mse = 0.0\nsamples = 4\nvalue = 0.4"] ;
844 -> 848 ;
849 [label="WindSpeed10m <= 0.4\nmse = 0.0\nsamples = 9\nvalue = 0.1"] ;
843 -> 849 ;
850 [label="WindDirectionZonal <= 0.5\nmse = 0.0\nsamples = 6\nvalue = 0.1"] ;
849 -> 850 ;
851 [label="mse = 0.0\nsamples = 3\nvalue = 0.0"] ;
850 -> 851 ;
852 [label="mse = 0.0\nsamples = 3\nvalue = 0.1"] ;
850 -> 852 ;
853 [label="mse = 0.0\nsamples = 3\nvalue = 0.3"] ;
849 -> 853 ;
854 [label="mse = 0.1\nsamples = 4\nvalue = 0.6"] ;
820 -> 854 ;
855 [label="WindDirectionMeridional <= 1.0\nmse = 0.1\nsamples = 98\nvalue = 0.5"] ;
817 -> 855 ;
856 [label="WindDirectionMeridional <= 1.0\nmse = 0.1\nsamples = 82\nvalue = 0.5"] ;
855 -> 856 ;
857 [label="Temperature <= 0.5\nmse = 0.1\nsamples = 78\nvalue = 0.5"] ;
856 -> 857 ;
858 [label="WindDirectionZonal <= 0.8\nmse = 0.1\nsamples = 22\nvalue = 0.6"] ;
857 -> 858 ;
859 [label="WindSpeed100m <= 0.4\nmse = 0.0\nsamples = 9\nvalue = 0.3"] ;
858 -> 859 ;
860 [label="mse = 0.0\nsamples = 4\nvalue = 0.2"] ;
859 -> 860 ;
861 [label="mse = 0.0\nsamples = 5\nvalue = 0.5"] ;
859 -> 861 ;
862 [label="Humidity <= 0.8\nmse = 0.0\nsamples = 13\nvalue = 0.8"] ;
858 -> 862 ;
863 [label="Temperature <= 0.5\nmse = 0.0\nsamples = 7\nvalue = 0.9"] ;
862 -> 863 ;
864 [label="mse = 0.0\nsamples = 3\nvalue = 0.8"] ;
863 -> 864 ;
865 [label="mse = 0.0\nsamples = 4\nvalue = 0.9"] ;
863 -> 865 ;
866 [label="WindDirectionZonal <= 0.9\nmse = 0.0\nsamples = 6\nvalue = 0.5"] ;
862 -> 866 ;
867 [label="mse = 0.0\nsamples = 3\nvalue = 0.7"] ;
866 -> 867 ;
868 [label="mse = 0.0\nsamples = 3\nvalue = 0.4"] ;
866 -> 868 ;
869 [label="Temperature <= 0.5\nmse = 0.1\nsamples = 56\nvalue = 0.5"] ;
857 -> 869 ;
870 [label="WindSpeed10m <= 0.5\nmse = 0.1\nsamples = 6\nvalue = 0.3"] ;
869 -> 870 ;
871 [label="mse = 0.0\nsamples = 3\nvalue = 0.1"] ;
870 -> 871 ;
872 [label="mse = 0.1\nsamples = 3\nvalue = 0.5"] ;
870 -> 872 ;
873 [label="AirPressure <= 0.3\nmse = 0.1\nsamples = 50\nvalue = 0.5"] ;
869 -> 873 ;
874 [label="mse = 0.0\nsamples = 4\nvalue = 0.8"] ;
873 -> 874 ;
875 [label="WindSpeed100m <= 0.5\nmse = 0.0\nsamples = 46\nvalue = 0.4"] ;
873 -> 875 ;
876 [label="WindDirectionMeridional <= 0.6\nmse = 0.0\nsamples = 32\nvalue = 0.4"] ;
875 -> 876 ;
877 [label="mse = 0.0\nsamples = 3\nvalue = 0.7"] ;
876 -> 877 ;
878 [label="ForecastingTime <= 38.5\nmse = 0.0\nsamples = 29\nvalue = 0.4"] ;
876 -> 878 ;
879 [label="ForecastingTime <= 36.5\nmse = 0.0\nsamples = 24\nvalue = 0.4"] ;
878 -> 879 ;
880 [label="WindDirectionZonal <= 0.8\nmse = 0.0\nsamples = 21\nvalue = 0.4"] ;
879 -> 880 ;
881 [label="WindSpeed10m <= 0.4\nmse = 0.0\nsamples = 8\nvalue = 0.5"] ;
880 -> 881 ;
882 [label="mse = 0.0\nsamples = 3\nvalue = 0.6"] ;
881 -> 882 ;
883 [label="mse = 0.0\nsamples = 5\nvalue = 0.4"] ;
881 -> 883 ;
884 [label="ForecastingTime <= 33.5\nmse = 0.0\nsamples = 13\nvalue = 0.3"] ;
880 -> 884 ;
885 [label="WindDirectionMeridional <= 0.8\nmse = 0.0\nsamples = 6\nvalue = 0.4"] ;
884 -> 885 ;
886 [label="mse = 0.0\nsamples = 3\nvalue = 0.3"] ;
885 -> 886 ;
887 [label="mse = 0.0\nsamples = 3\nvalue = 0.4"] ;
885 -> 887 ;
888 [label="WindSpeed100m <= 0.4\nmse = 0.0\nsamples = 7\nvalue = 0.3"] ;
884 -> 888 ;
889 [label="mse = 0.0\nsamples = 3\nvalue = 0.4"] ;
888 -> 889 ;
890 [label="mse = 0.0\nsamples = 4\nvalue = 0.1"] ;
888 -> 890 ;
891 [label="mse = 0.0\nsamples = 3\nvalue = 0.6"] ;
879 -> 891 ;
892 [label="mse = 0.0\nsamples = 5\nvalue = 0.2"] ;
878 -> 892 ;
893 [label="ForecastingTime <= 41.5\nmse = 0.0\nsamples = 14\nvalue = 0.6"] ;
875 -> 893 ;
894 [label="Humidity <= 0.8\nmse = 0.0\nsamples = 8\nvalue = 0.5"] ;
893 -> 894 ;
895 [label="mse = 0.1\nsamples = 3\nvalue = 0.7"] ;
894 -> 895 ;
896 [label="mse = 0.0\nsamples = 5\nvalue = 0.4"] ;
894 -> 896 ;
897 [label="WindSpeed10m <= 0.5\nmse = 0.0\nsamples = 6\nvalue = 0.7"] ;
893 -> 897 ;
898 [label="mse = 0.0\nsamples = 3\nvalue = 0.7"] ;
897 -> 898 ;
899 [label="mse = 0.0\nsamples = 3\nvalue = 0.7"] ;
897 -> 899 ;
900 [label="mse = 0.0\nsamples = 4\nvalue = 0.9"] ;
856 -> 900 ;
901 [label="AirPressure <= 0.4\nmse = 0.1\nsamples = 16\nvalue = 0.4"] ;
855 -> 901 ;
902 [label="AirPressure <= 0.3\nmse = 0.1\nsamples = 6\nvalue = 0.1"] ;
901 -> 902 ;
903 [label="mse = 0.2\nsamples = 3\nvalue = 0.4"] ;
902 -> 903 ;
904 [label="mse = 0.0\nsamples = 3\nvalue = 0.1"] ;
902 -> 904 ;
905 [label="WindSpeed10m <= 0.5\nmse = 0.0\nsamples = 10\nvalue = 0.5"] ;
901 -> 905 ;
906 [label="mse = 0.0\nsamples = 4\nvalue = 0.4"] ;
905 -> 906 ;
907 [label="WindSpeed100m <= 0.5\nmse = 0.0\nsamples = 6\nvalue = 0.6"] ;
905 -> 907 ;
908 [label="mse = 0.0\nsamples = 3\nvalue = 0.6"] ;
907 -> 908 ;
909 [label="mse = 0.0\nsamples = 3\nvalue = 0.5"] ;
907 -> 909 ;
910 [label="WindSpeed100m <= 0.6\nmse = 0.0\nsamples = 6\nvalue = 0.1"] ;
810 -> 910 ;
911 [label="mse = 0.0\nsamples = 3\nvalue = 0.1"] ;
910 -> 911 ;
912 [label="mse = 0.0\nsamples = 3\nvalue = 0.0"] ;
910 -> 912 ;
913 [label="ForecastingTime <= 43.5\nmse = 0.1\nsamples = 53\nvalue = 0.8"] ;
549 -> 913 ;
914 [label="WindSpeed10m <= 0.6\nmse = 0.0\nsamples = 45\nvalue = 0.9"] ;
913 -> 914 ;
915 [label="WindSpeed10m <= 0.6\nmse = 0.1\nsamples = 10\nvalue = 0.7"] ;
914 -> 915 ;
916 [label="WindDirectionZonal <= 0.9\nmse = 0.0\nsamples = 6\nvalue = 0.8"] ;
915 -> 916 ;
917 [label="mse = 0.0\nsamples = 3\nvalue = 0.6"] ;
916 -> 917 ;
918 [label="mse = 0.0\nsamples = 3\nvalue = 1.0"] ;
916 -> 918 ;
919 [label="mse = 0.0\nsamples = 4\nvalue = 0.6"] ;
915 -> 919 ;
920 [label="Temperature <= 0.5\nmse = 0.0\nsamples = 35\nvalue = 0.9"] ;
914 -> 920 ;
921 [label="WindDirectionZonal <= 1.0\nmse = 0.0\nsamples = 14\nvalue = 0.8"] ;
920 -> 921 ;
922 [label="WindDirectionZonal <= 0.5\nmse = 0.0\nsamples = 7\nvalue = 0.9"] ;
921 -> 922 ;
923 [label="mse = 0.0\nsamples = 4\nvalue = 0.9"] ;
922 -> 923 ;
924 [label="mse = 0.0\nsamples = 3\nvalue = 0.9"] ;
922 -> 924 ;
925 [label="AirPressure <= 0.4\nmse = 0.1\nsamples = 7\nvalue = 0.8"] ;
921 -> 925 ;
926 [label="mse = 0.0\nsamples = 4\nvalue = 0.8"] ;
925 -> 926 ;
927 [label="mse = 0.1\nsamples = 3\nvalue = 0.7"] ;
925 -> 927 ;
928 [label="ForecastingTime <= 34.5\nmse = 0.0\nsamples = 21\nvalue = 1.0"] ;
920 -> 928 ;
929 [label="WindSpeed100m <= 0.7\nmse = 0.0\nsamples = 11\nvalue = 0.9"] ;
928 -> 929 ;
930 [label="mse = 0.0\nsamples = 3\nvalue = 0.9"] ;
929 -> 930 ;
931 [label="WindSpeed100m <= 0.7\nmse = 0.0\nsamples = 8\nvalue = 0.9"] ;
929 -> 931 ;
932 [label="mse = 0.0\nsamples = 3\nvalue = 0.9"] ;
931 -> 932 ;
933 [label="mse = 0.0\nsamples = 5\nvalue = 0.9"] ;
931 -> 933 ;
934 [label="ForecastingTime <= 36.5\nmse = 0.0\nsamples = 10\nvalue = 1.0"] ;
928 -> 934 ;
935 [label="mse = 0.0\nsamples = 4\nvalue = 1.0"] ;
934 -> 935 ;
936 [label="WindSpeed100m <= 0.7\nmse = 0.0\nsamples = 6\nvalue = 1.0"] ;
934 -> 936 ;
937 [label="mse = 0.0\nsamples = 3\nvalue = 1.0"] ;
936 -> 937 ;
938 [label="mse = 0.0\nsamples = 3\nvalue = 1.0"] ;
936 -> 938 ;
939 [label="Humidity <= 0.8\nmse = 0.1\nsamples = 8\nvalue = 0.7"] ;
913 -> 939 ;
940 [label="mse = 0.0\nsamples = 4\nvalue = 0.3"] ;
939 -> 940 ;
941 [label="mse = 0.0\nsamples = 4\nvalue = 1.0"] ;
939 -> 941 ;
942 [label="WindSpeed10m <= 0.4\nmse = 0.0\nsamples = 4126\nvalue = 0.2"] ;
0 -> 942 [labeldistance=2.5, labelangle=-45, headlabel="False"] ;
943 [label="Temperature <= 0.5\nmse = 0.0\nsamples = 3351\nvalue = 0.1"] ;
942 -> 943 ;
944 [label="WindSpeed10m <= 0.2\nmse = 0.0\nsamples = 1602\nvalue = 0.2"] ;
943 -> 944 ;
945 [label="WindSpeed100m <= 0.3\nmse = 0.0\nsamples = 909\nvalue = 0.1"] ;
944 -> 945 ;
946 [label="WindSpeed10m <= 0.1\nmse = 0.0\nsamples = 639\nvalue = 0.1"] ;
945 -> 946 ;
947 [label="Temperature <= 0.4\nmse = 0.0\nsamples = 161\nvalue = 0.0"] ;
946 -> 947 ;
948 [label="WindDirectionMeridional <= 0.0\nmse = 0.0\nsamples = 88\nvalue = 0.0"] ;
947 -> 948 ;
949 [label="mse = 0.0\nsamples = 5\nvalue = 0.1"] ;
948 -> 949 ;
950 [label="WindSpeed100m <= 0.1\nmse = 0.0\nsamples = 83\nvalue = 0.0"] ;
948 -> 950 ;
951 [label="ForecastingTime <= 42.5\nmse = 0.0\nsamples = 35\nvalue = 0.0"] ;
950 -> 951 ;
952 [label="ForecastingTime <= 31.5\nmse = 0.0\nsamples = 26\nvalue = 0.0"] ;
951 -> 952 ;
953 [label="WindDirectionMeridional <= 0.8\nmse = 0.0\nsamples = 12\nvalue = 0.0"] ;
952 -> 953 ;
954 [label="AirPressure <= 0.8\nmse = 0.0\nsamples = 8\nvalue = 0.0"] ;
953 -> 954 ;
955 [label="mse = 0.0\nsamples = 4\nvalue = 0.0"] ;
954 -> 955 ;
956 [label="mse = 0.0\nsamples = 4\nvalue = 0.0"] ;
954 -> 956 ;
957 [label="mse = 0.0\nsamples = 4\nvalue = 0.0"] ;
953 -> 957 ;
958 [label="ForecastingTime <= 38.0\nmse = 0.0\nsamples = 14\nvalue = 0.0"] ;
952 -> 958 ;
959 [label="Temperature <= 0.4\nmse = 0.0\nsamples = 11\nvalue = 0.0"] ;
958 -> 959 ;
960 [label="mse = 0.0\nsamples = 5\nvalue = 0.0"] ;
959 -> 960 ;
961 [label="WindDirectionZonal <= 0.7\nmse = 0.0\nsamples = 6\nvalue = 0.0"] ;
959 -> 961 ;
962 [label="mse = 0.0\nsamples = 3\nvalue = 0.0"] ;
961 -> 962 ;
963 [label="mse = 0.0\nsamples = 3\nvalue = 0.0"] ;
961 -> 963 ;
964 [label="mse = 0.0\nsamples = 3\nvalue = 0.0"] ;
958 -> 964 ;
965 [label="WindSpeed10m <= 0.1\nmse = 0.0\nsamples = 9\nvalue = 0.0"] ;
951 -> 965 ;
966 [label="WindSpeed10m <= 0.1\nmse = 0.0\nsamples = 6\nvalue = 0.0"] ;
965 -> 966 ;
967 [label="mse = 0.0\nsamples = 3\nvalue = 0.0"] ;
966 -> 967 ;
968 [label="mse = 0.0\nsamples = 3\nvalue = 0.0"] ;
966 -> 968 ;
969 [label="mse = 0.0\nsamples = 3\nvalue = 0.0"] ;
965 -> 969 ;
970 [label="ForecastingTime <= 44.5\nmse = 0.0\nsamples = 48\nvalue = 0.0"] ;
950 -> 970 ;
971 [label="WindSpeed10m <= 0.1\nmse = 0.0\nsamples = 43\nvalue = 0.0"] ;
970 -> 971 ;
972 [label="Temperature <= 0.4\nmse = 0.0\nsamples = 10\nvalue = 0.0"] ;
971 -> 972 ;
973 [label="mse = 0.0\nsamples = 3\nvalue = 0.0"] ;
972 -> 973 ;
974 [label="WindSpeed10m <= 0.1\nmse = 0.0\nsamples = 7\nvalue = 0.0"] ;
972 -> 974 ;
975 [label="mse = 0.0\nsamples = 4\nvalue = 0.0"] ;
974 -> 975 ;
976 [label="mse = 0.0\nsamples = 3\nvalue = 0.1"] ;
974 -> 976 ;
977 [label="WindSpeed10m <= 0.1\nmse = 0.0\nsamples = 33\nvalue = 0.0"] ;
971 -> 977 ;
978 [label="AirPressure <= 0.8\nmse = 0.0\nsamples = 17\nvalue = 0.0"] ;
977 -> 978 ;
979 [label="WindSpeed100m <= 0.2\nmse = 0.0\nsamples = 13\nvalue = 0.0"] ;
978 -> 979 ;
980 [label="Humidity <= 1.0\nmse = 0.0\nsamples = 7\nvalue = 0.0"] ;
979 -> 980 ;
981 [label="mse = 0.0\nsamples = 4\nvalue = 0.0"] ;
980 -> 981 ;
982 [label="mse = 0.0\nsamples = 3\nvalue = 0.0"] ;
980 -> 982 ;
983 [label="WindSpeed10m <= 0.1\nmse = 0.0\nsamples = 6\nvalue = 0.0"] ;
979 -> 983 ;
984 [label="mse = 0.0\nsamples = 3\nvalue = 0.0"] ;
983 -> 984 ;
985 [label="mse = 0.0\nsamples = 3\nvalue = 0.0"] ;
983 -> 985 ;
986 [label="mse = 0.0\nsamples = 4\nvalue = 0.0"] ;
978 -> 986 ;
987 [label="WindSpeed100m <= 0.1\nmse = 0.0\nsamples = 16\nvalue = 0.0"] ;
977 -> 987 ;
988 [label="mse = 0.0\nsamples = 5\nvalue = 0.0"] ;
987 -> 988 ;
989 [label="ForecastingTime <= 30.5\nmse = 0.0\nsamples = 11\nvalue = 0.0"] ;
987 -> 989 ;
990 [label="Humidity <= 0.9\nmse = 0.0\nsamples = 7\nvalue = 0.0"] ;
989 -> 990 ;
991 [label="mse = 0.0\nsamples = 3\nvalue = 0.0"] ;
990 -> 991 ;
992 [label="mse = 0.0\nsamples = 4\nvalue = 0.0"] ;
990 -> 992 ;
993 [label="mse = 0.0\nsamples = 4\nvalue = 0.0"] ;
989 -> 993 ;
994 [label="mse = 0.0\nsamples = 5\nvalue = 0.1"] ;
970 -> 994 ;
995 [label="WindDirectionZonal <= 0.7\nmse = 0.0\nsamples = 73\nvalue = 0.0"] ;
947 -> 995 ;
996 [label="AirPressure <= 0.5\nmse = 0.0\nsamples = 32\nvalue = 0.0"] ;
995 -> 996 ;
997 [label="mse = 0.0\nsamples = 3\nvalue = 0.1"] ;
996 -> 997 ;
998 [label="WindSpeed10m <= 0.1\nmse = 0.0\nsamples = 29\nvalue = 0.0"] ;
996 -> 998 ;
999 [label="WindSpeed10m <= 0.1\nmse = 0.0\nsamples = 12\nvalue = 0.0"] ;
998 -> 999 ;
1000 [label="WindSpeed10m <= 0.1\nmse = 0.0\nsamples = 8\nvalue = 0.0"] ;
999 -> 1000 ;
1001 [label="mse = 0.0\nsamples = 5\nvalue = 0.0"] ;
1000 -> 1001 ;
1002 [label="mse = 0.0\nsamples = 3\nvalue = 0.0"] ;
1000 -> 1002 ;
1003 [label="mse = 0.0\nsamples = 4\nvalue = 0.0"] ;
999 -> 1003 ;
1004 [label="AirPressure <= 0.7\nmse = 0.0\nsamples = 17\nvalue = 0.0"] ;
998 -> 1004 ;
1005 [label="AirPressure <= 0.6\nmse = 0.0\nsamples = 11\nvalue = 0.0"] ;
1004 -> 1005 ;
1006 [label="mse = 0.0\nsamples = 5\nvalue = 0.0"] ;
1005 -> 1006 ;
1007 [label="WindSpeed10m <= 0.1\nmse = 0.0\nsamples = 6\nvalue = 0.0"] ;
1005 -> 1007 ;
1008 [label="mse = 0.0\nsamples = 3\nvalue = 0.0"] ;
1007 -> 1008 ;
1009 [label="mse = 0.0\nsamples = 3\nvalue = 0.0"] ;
1007 -> 1009 ;
1010 [label="WindDirectionMeridional <= 0.7\nmse = 0.0\nsamples = 6\nvalue = 0.0"] ;
1004 -> 1010 ;
1011 [label="mse = 0.0\nsamples = 3\nvalue = 0.0"] ;
1010 -> 1011 ;
1012 [label="mse = 0.0\nsamples = 3\nvalue = 0.0"] ;
1010 -> 1012 ;
1013 [label="ForecastingTime <= 44.0\nmse = 0.0\nsamples = 41\nvalue = 0.0"] ;
995 -> 1013 ;
1014 [label="ForecastingTime <= 32.5\nmse = 0.0\nsamples = 37\nvalue = 0.0"] ;
1013 -> 1014 ;
1015 [label="WindDirectionMeridional <= 0.4\nmse = 0.0\nsamples = 21\nvalue = 0.1"] ;
1014 -> 1015 ;
1016 [label="WindSpeed100m <= 0.1\nmse = 0.0\nsamples = 8\nvalue = 0.1"] ;
1015 -> 1016 ;
1017 [label="mse = 0.0\nsamples = 5\nvalue = 0.1"] ;
1016 -> 1017 ;
1018 [label="mse = 0.0\nsamples = 3\nvalue = 0.2"] ;
1016 -> 1018 ;
1019 [label="WindSpeed100m <= 0.1\nmse = 0.0\nsamples = 13\nvalue = 0.0"] ;
1015 -> 1019 ;
1020 [label="WindDirectionZonal <= 0.8\nmse = 0.0\nsamples = 9\nvalue = 0.0"] ;
1019 -> 1020 ;
1021 [label="mse = 0.0\nsamples = 3\nvalue = 0.1"] ;
1020 -> 1021 ;
1022 [label="WindDirectionZonal <= 1.0\nmse = 0.0\nsamples = 6\nvalue = 0.0"] ;
1020 -> 1022 ;
1023 [label="mse = 0.0\nsamples = 3\nvalue = 0.0"] ;
1022 -> 1023 ;
1024 [label="mse = 0.0\nsamples = 3\nvalue = 0.0"] ;
1022 -> 1024 ;
1025 [label="mse = 0.0\nsamples = 4\nvalue = 0.0"] ;
1019 -> 1025 ;
1026 [label="ForecastingTime <= 33.5\nmse = 0.0\nsamples = 16\nvalue = 0.0"] ;
1014 -> 1026 ;
1027 [label="mse = 0.0\nsamples = 4\nvalue = 0.0"] ;
1026 -> 1027 ;
1028 [label="WindDirectionZonal <= 1.0\nmse = 0.0\nsamples = 12\nvalue = 0.0"] ;
1026 -> 1028 ;
1029 [label="WindSpeed10m <= 0.1\nmse = 0.0\nsamples = 7\nvalue = 0.0"] ;
1028 -> 1029 ;
1030 [label="mse = 0.0\nsamples = 3\nvalue = 0.0"] ;
1029 -> 1030 ;
1031 [label="mse = 0.0\nsamples = 4\nvalue = 0.0"] ;
1029 -> 1031 ;
1032 [label="mse = 0.0\nsamples = 5\nvalue = 0.0"] ;
1028 -> 1032 ;
1033 [label="mse = 0.0\nsamples = 4\nvalue = 0.1"] ;
1013 -> 1033 ;
1034 [label="Temperature <= 0.3\nmse = 0.0\nsamples = 478\nvalue = 0.1"] ;
946 -> 1034 ;
1035 [label="WindDirectionZonal <= 0.2\nmse = 0.0\nsamples = 107\nvalue = 0.0"] ;
1034 -> 1035 ;
1036 [label="AirPressure <= 0.5\nmse = 0.0\nsamples = 43\nvalue = 0.1"] ;
1035 -> 1036 ;
1037 [label="mse = 0.0\nsamples = 4\nvalue = 0.2"] ;
1036 -> 1037 ;
1038 [label="WindDirectionZonal <= 0.2\nmse = 0.0\nsamples = 39\nvalue = 0.1"] ;
1036 -> 1038 ;
1039 [label="Temperature <= 0.3\nmse = 0.0\nsamples = 34\nvalue = 0.0"] ;
1038 -> 1039 ;
1040 [label="ForecastingTime <= 39.0\nmse = 0.0\nsamples = 8\nvalue = 0.0"] ;
1039 -> 1040 ;
1041 [label="mse = 0.0\nsamples = 4\nvalue = 0.0"] ;
1040 -> 1041 ;
1042 [label="mse = 0.0\nsamples = 4\nvalue = 0.0"] ;
1040 -> 1042 ;
1043 [label="WindSpeed10m <= 0.2\nmse = 0.0\nsamples = 26\nvalue = 0.1"] ;
1039 -> 1043 ;
1044 [label="WindSpeed100m <= 0.2\nmse = 0.0\nsamples = 8\nvalue = 0.1"] ;
1043 -> 1044 ;
1045 [label="mse = 0.0\nsamples = 5\nvalue = 0.1"] ;
1044 -> 1045 ;
1046 [label="mse = 0.0\nsamples = 3\nvalue = 0.1"] ;
1044 -> 1046 ;
1047 [label="Temperature <= 0.3\nmse = 0.0\nsamples = 18\nvalue = 0.0"] ;
1043 -> 1047 ;
1048 [label="mse = 0.0\nsamples = 3\nvalue = 0.0"] ;
1047 -> 1048 ;
1049 [label="Humidity <= 0.9\nmse = 0.0\nsamples = 15\nvalue = 0.1"] ;
1047 -> 1049 ;
1050 [label="AirPressure <= 0.6\nmse = 0.0\nsamples = 12\nvalue = 0.1"] ;
1049 -> 1050 ;
1051 [label="ForecastingTime <= 34.0\nmse = 0.0\nsamples = 7\nvalue = 0.0"] ;
1050 -> 1051 ;
1052 [label="mse = 0.0\nsamples = 4\nvalue = 0.1"] ;
1051 -> 1052 ;
1053 [label="mse = 0.0\nsamples = 3\nvalue = 0.0"] ;
1051 -> 1053 ;
1054 [label="mse = 0.0\nsamples = 5\nvalue = 0.1"] ;
1050 -> 1054 ;
1055 [label="mse = 0.0\nsamples = 3\nvalue = 0.0"] ;
1049 -> 1055 ;
1056 [label="mse = 0.0\nsamples = 5\nvalue = 0.1"] ;
1038 -> 1056 ;
1057 [label="Temperature <= 0.2\nmse = 0.0\nsamples = 64\nvalue = 0.0"] ;
1035 -> 1057 ;
1058 [label="mse = 0.0\nsamples = 6\nvalue = 0.0"] ;
1057 -> 1058 ;
1059 [label="WindDirectionMeridional <= 0.7\nmse = 0.0\nsamples = 58\nvalue = 0.0"] ;
1057 -> 1059 ;
1060 [label="AirPressure <= 0.7\nmse = 0.0\nsamples = 48\nvalue = 0.0"] ;
1059 -> 1060 ;
1061 [label="Temperature <= 0.3\nmse = 0.0\nsamples = 12\nvalue = 0.0"] ;
1060 -> 1061 ;
1062 [label="WindDirectionZonal <= 0.4\nmse = 0.0\nsamples = 6\nvalue = 0.0"] ;
1061 -> 1062 ;
1063 [label="mse = 0.0\nsamples = 3\nvalue = 0.0"] ;
1062 -> 1063 ;
1064 [label="mse = 0.0\nsamples = 3\nvalue = 0.0"] ;
1062 -> 1064 ;
1065 [label="WindDirectionMeridional <= 0.0\nmse = 0.0\nsamples = 6\nvalue = 0.1"] ;
1061 -> 1065 ;
1066 [label="mse = 0.0\nsamples = 3\nvalue = 0.1"] ;
1065 -> 1066 ;
1067 [label="mse = 0.0\nsamples = 3\nvalue = 0.1"] ;
1065 -> 1067 ;
1068 [label="ForecastingTime <= 25.5\nmse = 0.0\nsamples = 36\nvalue = 0.0"] ;
1060 -> 1068 ;
1069 [label="Humidity <= 0.9\nmse = 0.0\nsamples = 7\nvalue = 0.0"] ;
1068 -> 1069 ;
1070 [label="mse = 0.0\nsamples = 4\nvalue = 0.1"] ;
1069 -> 1070 ;
1071 [label="mse = 0.0\nsamples = 3\nvalue = 0.0"] ;
1069 -> 1071 ;
1072 [label="WindSpeed100m <= 0.2\nmse = 0.0\nsamples = 29\nvalue = 0.0"] ;
1068 -> 1072 ;
1073 [label="ForecastingTime <= 45.5\nmse = 0.0\nsamples = 25\nvalue = 0.0"] ;
1072 -> 1073 ;
1074 [label="WindDirectionZonal <= 0.9\nmse = 0.0\nsamples = 22\nvalue = 0.0"] ;
1073 -> 1074 ;
1075 [label="Humidity <= 0.8\nmse = 0.0\nsamples = 19\nvalue = 0.0"] ;
1074 -> 1075 ;
1076 [label="WindSpeed100m <= 0.2\nmse = 0.0\nsamples = 12\nvalue = 0.0"] ;
1075 -> 1076 ;
1077 [label="WindDirectionMeridional <= 0.0\nmse = 0.0\nsamples = 6\nvalue = 0.0"] ;
1076 -> 1077 ;
1078 [label="mse = 0.0\nsamples = 3\nvalue = 0.0"] ;
1077 -> 1078 ;
1079 [label="mse = 0.0\nsamples = 3\nvalue = 0.0"] ;
1077 -> 1079 ;
1080 [label="AirPressure <= 0.8\nmse = 0.0\nsamples = 6\nvalue = 0.0"] ;
1076 -> 1080 ;
1081 [label="mse = 0.0\nsamples = 3\nvalue = 0.0"] ;
1080 -> 1081 ;
1082 [label="mse = 0.0\nsamples = 3\nvalue = 0.0"] ;
1080 -> 1082 ;
1083 [label="AirPressure <= 0.8\nmse = 0.0\nsamples = 7\nvalue = 0.0"] ;
1075 -> 1083 ;
1084 [label="mse = 0.0\nsamples = 3\nvalue = 0.0"] ;
1083 -> 1084 ;
1085 [label="mse = 0.0\nsamples = 4\nvalue = 0.0"] ;
1083 -> 1085 ;
1086 [label="mse = 0.0\nsamples = 3\nvalue = 0.0"] ;
1074 -> 1086 ;
1087 [label="mse = 0.0\nsamples = 3\nvalue = 0.0"] ;
1073 -> 1087 ;
1088 [label="mse = 0.0\nsamples = 4\nvalue = 0.0"] ;
1072 -> 1088 ;
1089 [label="Humidity <= 0.9\nmse = 0.0\nsamples = 10\nvalue = 0.1"] ;
1059 -> 1089 ;
1090 [label="mse = 0.0\nsamples = 5\nvalue = 0.0"] ;
1089 -> 1090 ;
1091 [label="mse = 0.0\nsamples = 5\nvalue = 0.1"] ;
1089 -> 1091 ;
1092 [label="WindSpeed10m <= 0.2\nmse = 0.0\nsamples = 371\nvalue = 0.1"] ;
1034 -> 1092 ;
1093 [label="Humidity <= 0.9\nmse = 0.0\nsamples = 240\nvalue = 0.1"] ;
1092 -> 1093 ;
1094 [label="WindDirectionMeridional <= 0.1\nmse = 0.0\nsamples = 149\nvalue = 0.1"] ;
1093 -> 1094 ;
1095 [label="ForecastingTime <= 42.0\nmse = 0.0\nsamples = 19\nvalue = 0.0"] ;
1094 -> 1095 ;
1096 [label="WindSpeed100m <= 0.2\nmse = 0.0\nsamples = 16\nvalue = 0.0"] ;
1095 -> 1096 ;
1097 [label="WindSpeed10m <= 0.2\nmse = 0.0\nsamples = 11\nvalue = 0.0"] ;
1096 -> 1097 ;
1098 [label="mse = 0.0\nsamples = 3\nvalue = 0.0"] ;
1097 -> 1098 ;
1099 [label="ForecastingTime <= 34.5\nmse = 0.0\nsamples = 8\nvalue = 0.0"] ;
1097 -> 1099 ;
1100 [label="mse = 0.0\nsamples = 3\nvalue = 0.0"] ;
1099 -> 1100 ;
1101 [label="mse = 0.0\nsamples = 5\nvalue = 0.0"] ;
1099 -> 1101 ;
1102 [label="mse = 0.0\nsamples = 5\nvalue = 0.0"] ;
1096 -> 1102 ;
1103 [label="mse = 0.0\nsamples = 3\nvalue = 0.1"] ;
1095 -> 1103 ;
1104 [label="Humidity <= 0.5\nmse = 0.0\nsamples = 130\nvalue = 0.1"] ;
1094 -> 1104 ;
1105 [label="Temperature <= 0.5\nmse = 0.0\nsamples = 17\nvalue = 0.1"] ;
1104 -> 1105 ;
1106 [label="AirPressure <= 0.6\nmse = 0.0\nsamples = 14\nvalue = 0.0"] ;
1105 -> 1106 ;
1107 [label="mse = 0.0\nsamples = 5\nvalue = 0.0"] ;
1106 -> 1107 ;
1108 [label="WindSpeed10m <= 0.2\nmse = 0.0\nsamples = 9\nvalue = 0.1"] ;
1106 -> 1108 ;
1109 [label="mse = 0.0\nsamples = 4\nvalue = 0.1"] ;
1108 -> 1109 ;
1110 [label="mse = 0.0\nsamples = 5\nvalue = 0.0"] ;
1108 -> 1110 ;
1111 [label="mse = 0.0\nsamples = 3\nvalue = 0.1"] ;
1105 -> 1111 ;
1112 [label="Humidity <= 0.6\nmse = 0.0\nsamples = 113\nvalue = 0.1"] ;
1104 -> 1112 ;
1113 [label="WindDirectionZonal <= 0.1\nmse = 0.0\nsamples = 14\nvalue = 0.1"] ;
1112 -> 1113 ;
1114 [label="AirPressure <= 0.7\nmse = 0.0\nsamples = 6\nvalue = 0.0"] ;
1113 -> 1114 ;
1115 [label="mse = 0.0\nsamples = 3\nvalue = 0.0"] ;
1114 -> 1115 ;
1116 [label="mse = 0.0\nsamples = 3\nvalue = 0.1"] ;
1114 -> 1116 ;
1117 [label="AirPressure <= 0.7\nmse = 0.0\nsamples = 8\nvalue = 0.2"] ;
1113 -> 1117 ;
1118 [label="mse = 0.0\nsamples = 3\nvalue = 0.2"] ;
1117 -> 1118 ;
1119 [label="mse = 0.0\nsamples = 5\nvalue = 0.2"] ;
1117 -> 1119 ;
1120 [label="AirPressure <= 0.7\nmse = 0.0\nsamples = 99\nvalue = 0.1"] ;
1112 -> 1120 ;
1121 [label="WindSpeed100m <= 0.2\nmse = 0.0\nsamples = 32\nvalue = 0.1"] ;
1120 -> 1121 ;
1122 [label="ForecastingTime <= 31.5\nmse = 0.0\nsamples = 7\nvalue = 0.2"] ;
1121 -> 1122 ;
1123 [label="mse = 0.0\nsamples = 4\nvalue = 0.3"] ;
1122 -> 1123 ;
1124 [label="mse = 0.0\nsamples = 3\nvalue = 0.1"] ;
1122 -> 1124 ;
1125 [label="WindDirectionMeridional <= 0.8\nmse = 0.0\nsamples = 25\nvalue = 0.1"] ;
1121 -> 1125 ;
1126 [label="ForecastingTime <= 37.0\nmse = 0.0\nsamples = 12\nvalue = 0.0"] ;
1125 -> 1126 ;
1127 [label="mse = 0.0\nsamples = 5\nvalue = 0.0"] ;
1126 -> 1127 ;
1128 [label="WindSpeed10m <= 0.2\nmse = 0.0\nsamples = 7\nvalue = 0.1"] ;
1126 -> 1128 ;
1129 [label="mse = 0.0\nsamples = 4\nvalue = 0.1"] ;
1128 -> 1129 ;
1130 [label="mse = 0.0\nsamples = 3\nvalue = 0.0"] ;
1128 -> 1130 ;
1131 [label="WindDirectionMeridional <= 0.9\nmse = 0.0\nsamples = 13\nvalue = 0.1"] ;
1125 -> 1131 ;
1132 [label="mse = 0.0\nsamples = 5\nvalue = 0.2"] ;
1131 -> 1132 ;
1133 [label="WindDirectionZonal <= 0.7\nmse = 0.0\nsamples = 8\nvalue = 0.1"] ;
1131 -> 1133 ;
1134 [label="mse = 0.0\nsamples = 5\nvalue = 0.1"] ;
1133 -> 1134 ;
1135 [label="mse = 0.0\nsamples = 3\nvalue = 0.0"] ;
1133 -> 1135 ;
1136 [label="WindSpeed100m <= 0.2\nmse = 0.0\nsamples = 67\nvalue = 0.1"] ;
1120 -> 1136 ;
1137 [label="Temperature <= 0.5\nmse = 0.0\nsamples = 17\nvalue = 0.0"] ;
1136 -> 1137 ;
1138 [label="ForecastingTime <= 34.5\nmse = 0.0\nsamples = 12\nvalue = 0.0"] ;
1137 -> 1138 ;
1139 [label="Humidity <= 0.8\nmse = 0.0\nsamples = 7\nvalue = 0.0"] ;
1138 -> 1139 ;
1140 [label="mse = 0.0\nsamples = 3\nvalue = 0.0"] ;
1139 -> 1140 ;
1141 [label="mse = 0.0\nsamples = 4\nvalue = 0.1"] ;
1139 -> 1141 ;
1142 [label="mse = 0.0\nsamples = 5\nvalue = 0.0"] ;
1138 -> 1142 ;
1143 [label="mse = 0.0\nsamples = 5\nvalue = 0.1"] ;
1137 -> 1143 ;
1144 [label="WindSpeed10m <= 0.2\nmse = 0.0\nsamples = 50\nvalue = 0.1"] ;
1136 -> 1144 ;
1145 [label="Temperature <= 0.5\nmse = 0.0\nsamples = 13\nvalue = 0.0"] ;
1144 -> 1145 ;
1146 [label="WindDirectionZonal <= 1.0\nmse = 0.0\nsamples = 9\nvalue = 0.1"] ;
1145 -> 1146 ;
1147 [label="mse = 0.0\nsamples = 5\nvalue = 0.1"] ;
1146 -> 1147 ;
1148 [label="mse = 0.0\nsamples = 4\nvalue = 0.0"] ;
1146 -> 1148 ;
1149 [label="mse = 0.0\nsamples = 4\nvalue = 0.0"] ;
1145 -> 1149 ;
1150 [label="WindSpeed100m <= 0.3\nmse = 0.0\nsamples = 37\nvalue = 0.1"] ;
1144 -> 1150 ;
1151 [label="AirPressure <= 0.9\nmse = 0.0\nsamples = 33\nvalue = 0.1"] ;
1150 -> 1151 ;
1152 [label="AirPressure <= 0.8\nmse = 0.0\nsamples = 27\nvalue = 0.1"] ;
1151 -> 1152 ;
1153 [label="WindDirectionMeridional <= 0.7\nmse = 0.0\nsamples = 19\nvalue = 0.1"] ;
1152 -> 1153 ;
1154 [label="Humidity <= 0.7\nmse = 0.0\nsamples = 16\nvalue = 0.1"] ;
1153 -> 1154 ;
1155 [label="mse = 0.0\nsamples = 3\nvalue = 0.1"] ;
1154 -> 1155 ;
1156 [label="WindSpeed10m <= 0.2\nmse = 0.0\nsamples = 13\nvalue = 0.1"] ;
1154 -> 1156 ;
1157 [label="mse = 0.0\nsamples = 3\nvalue = 0.0"] ;
1156 -> 1157 ;
1158 [label="AirPressure <= 0.7\nmse = 0.0\nsamples = 10\nvalue = 0.1"] ;
1156 -> 1158 ;
1159 [label="mse = 0.0\nsamples = 4\nvalue = 0.1"] ;
1158 -> 1159 ;
1160 [label="WindSpeed100m <= 0.3\nmse = 0.0\nsamples = 6\nvalue = 0.1"] ;
1158 -> 1160 ;
1161 [label="mse = 0.0\nsamples = 3\nvalue = 0.1"] ;
1160 -> 1161 ;
1162 [label="mse = 0.0\nsamples = 3\nvalue = 0.1"] ;
1160 -> 1162 ;
1163 [label="mse = 0.0\nsamples = 3\nvalue = 0.1"] ;
1153 -> 1163 ;
1164 [label="WindDirectionZonal <= 0.4\nmse = 0.0\nsamples = 8\nvalue = 0.1"] ;
1152 -> 1164 ;
1165 [label="mse = 0.0\nsamples = 5\nvalue = 0.2"] ;
1164 -> 1165 ;
1166 [label="mse = 0.0\nsamples = 3\nvalue = 0.1"] ;
1164 -> 1166 ;
1167 [label="Humidity <= 0.9\nmse = 0.0\nsamples = 6\nvalue = 0.0"] ;
1151 -> 1167 ;
1168 [label="mse = 0.0\nsamples = 3\nvalue = 0.0"] ;
1167 -> 1168 ;
1169 [label="mse = 0.0\nsamples = 3\nvalue = 0.1"] ;
1167 -> 1169 ;
1170 [label="mse = 0.0\nsamples = 4\nvalue = 0.1"] ;
1150 -> 1170 ;
1171 [label="AirPressure <= 0.5\nmse = 0.0\nsamples = 91\nvalue = 0.1"] ;
1093 -> 1171 ;
1172 [label="mse = 0.1\nsamples = 5\nvalue = 0.3"] ;
1171 -> 1172 ;
1173 [label="WindSpeed100m <= 0.2\nmse = 0.0\nsamples = 86\nvalue = 0.1"] ;
1171 -> 1173 ;
1174 [label="WindDirectionMeridional <= 0.8\nmse = 0.0\nsamples = 41\nvalue = 0.2"] ;
1173 -> 1174 ;
1175 [label="WindDirectionMeridional <= 0.0\nmse = 0.0\nsamples = 31\nvalue = 0.2"] ;
1174 -> 1175 ;
1176 [label="mse = 0.0\nsamples = 5\nvalue = 0.3"] ;
1175 -> 1176 ;
1177 [label="WindSpeed100m <= 0.2\nmse = 0.0\nsamples = 26\nvalue = 0.2"] ;
1175 -> 1177 ;
1178 [label="WindSpeed10m <= 0.2\nmse = 0.0\nsamples = 21\nvalue = 0.1"] ;
1177 -> 1178 ;
1179 [label="AirPressure <= 0.7\nmse = 0.0\nsamples = 11\nvalue = 0.1"] ;
1178 -> 1179 ;
1180 [label="WindDirectionMeridional <= 0.2\nmse = 0.0\nsamples = 6\nvalue = 0.1"] ;
1179 -> 1180 ;
1181 [label="mse = 0.0\nsamples = 3\nvalue = 0.1"] ;
1180 -> 1181 ;
1182 [label="mse = 0.0\nsamples = 3\nvalue = 0.0"] ;
1180 -> 1182 ;
1183 [label="mse = 0.0\nsamples = 5\nvalue = 0.1"] ;
1179 -> 1183 ;
1184 [label="Temperature <= 0.4\nmse = 0.0\nsamples = 10\nvalue = 0.2"] ;
1178 -> 1184 ;
1185 [label="mse = 0.0\nsamples = 5\nvalue = 0.2"] ;
1184 -> 1185 ;
1186 [label="mse = 0.0\nsamples = 5\nvalue = 0.2"] ;
1184 -> 1186 ;
1187 [label="mse = 0.0\nsamples = 5\nvalue = 0.3"] ;
1177 -> 1187 ;
1188 [label="Temperature <= 0.4\nmse = 0.0\nsamples = 10\nvalue = 0.0"] ;
1174 -> 1188 ;
1189 [label="mse = 0.0\nsamples = 5\nvalue = 0.0"] ;
1188 -> 1189 ;
1190 [label="mse = 0.0\nsamples = 5\nvalue = 0.1"] ;
1188 -> 1190 ;
1191 [label="WindDirectionZonal <= 0.8\nmse = 0.0\nsamples = 45\nvalue = 0.1"] ;
1173 -> 1191 ;
1192 [label="Temperature <= 0.3\nmse = 0.0\nsamples = 30\nvalue = 0.1"] ;
1191 -> 1192 ;
1193 [label="mse = 0.0\nsamples = 3\nvalue = 0.3"] ;
1192 -> 1193 ;
1194 [label="WindSpeed10m <= 0.2\nmse = 0.0\nsamples = 27\nvalue = 0.1"] ;
1192 -> 1194 ;
1195 [label="Humidity <= 0.9\nmse = 0.0\nsamples = 6\nvalue = 0.1"] ;
1194 -> 1195 ;
1196 [label="mse = 0.0\nsamples = 3\nvalue = 0.2"] ;
1195 -> 1196 ;
1197 [label="mse = 0.0\nsamples = 3\nvalue = 0.1"] ;
1195 -> 1197 ;
1198 [label="AirPressure <= 0.9\nmse = 0.0\nsamples = 21\nvalue = 0.1"] ;
1194 -> 1198 ;
1199 [label="Humidity <= 0.9\nmse = 0.0\nsamples = 17\nvalue = 0.1"] ;
1198 -> 1199 ;
1200 [label="mse = 0.0\nsamples = 3\nvalue = 0.1"] ;
1199 -> 1200 ;
1201 [label="Temperature <= 0.5\nmse = 0.0\nsamples = 14\nvalue = 0.1"] ;
1199 -> 1201 ;
1202 [label="AirPressure <= 0.7\nmse = 0.0\nsamples = 6\nvalue = 0.1"] ;
1201 -> 1202 ;
1203 [label="mse = 0.0\nsamples = 3\nvalue = 0.1"] ;
1202 -> 1203 ;
1204 [label="mse = 0.0\nsamples = 3\nvalue = 0.1"] ;
1202 -> 1204 ;
1205 [label="AirPressure <= 0.8\nmse = 0.0\nsamples = 8\nvalue = 0.0"] ;
1201 -> 1205 ;
1206 [label="mse = 0.0\nsamples = 4\nvalue = 0.0"] ;
1205 -> 1206 ;
1207 [label="mse = 0.0\nsamples = 4\nvalue = 0.1"] ;
1205 -> 1207 ;
1208 [label="mse = 0.0\nsamples = 4\nvalue = 0.1"] ;
1198 -> 1208 ;
1209 [label="AirPressure <= 0.9\nmse = 0.0\nsamples = 15\nvalue = 0.1"] ;
1191 -> 1209 ;
1210 [label="AirPressure <= 0.6\nmse = 0.0\nsamples = 12\nvalue = 0.1"] ;
1209 -> 1210 ;
1211 [label="mse = 0.0\nsamples = 3\nvalue = 0.1"] ;
1210 -> 1211 ;
1212 [label="WindDirectionMeridional <= 0.5\nmse = 0.0\nsamples = 9\nvalue = 0.2"] ;
1210 -> 1212 ;
1213 [label="WindSpeed10m <= 0.2\nmse = 0.0\nsamples = 6\nvalue = 0.1"] ;
1212 -> 1213 ;
1214 [label="mse = 0.0\nsamples = 3\nvalue = 0.2"] ;
1213 -> 1214 ;
1215 [label="mse = 0.0\nsamples = 3\nvalue = 0.1"] ;
1213 -> 1215 ;
1216 [label="mse = 0.0\nsamples = 3\nvalue = 0.2"] ;
1212 -> 1216 ;
1217 [label="mse = 0.0\nsamples = 3\nvalue = 0.1"] ;
1209 -> 1217 ;
1218 [label="Temperature <= 0.5\nmse = 0.0\nsamples = 131\nvalue = 0.1"] ;
1092 -> 1218 ;
1219 [label="AirPressure <= 1.0\nmse = 0.0\nsamples = 103\nvalue = 0.1"] ;
1218 -> 1219 ;
1220 [label="Humidity <= 0.8\nmse = 0.0\nsamples = 99\nvalue = 0.1"] ;
1219 -> 1220 ;
1221 [label="WindDirectionMeridional <= 1.0\nmse = 0.0\nsamples = 54\nvalue = 0.0"] ;
1220 -> 1221 ;
1222 [label="WindDirectionMeridional <= 0.5\nmse = 0.0\nsamples = 49\nvalue = 0.0"] ;
1221 -> 1222 ;
1223 [label="WindDirectionZonal <= 0.1\nmse = 0.0\nsamples = 26\nvalue = 0.1"] ;
1222 -> 1223 ;
1224 [label="mse = 0.0\nsamples = 5\nvalue = 0.1"] ;
1223 -> 1224 ;
1225 [label="WindSpeed100m <= 0.3\nmse = 0.0\nsamples = 21\nvalue = 0.0"] ;
1223 -> 1225 ;
1226 [label="AirPressure <= 0.6\nmse = 0.0\nsamples = 18\nvalue = 0.0"] ;
1225 -> 1226 ;
1227 [label="mse = 0.0\nsamples = 5\nvalue = 0.0"] ;
1226 -> 1227 ;
1228 [label="WindDirectionMeridional <= 0.1\nmse = 0.0\nsamples = 13\nvalue = 0.0"] ;
1226 -> 1228 ;
1229 [label="WindSpeed10m <= 0.2\nmse = 0.0\nsamples = 7\nvalue = 0.0"] ;
1228 -> 1229 ;
1230 [label="mse = 0.0\nsamples = 4\nvalue = 0.0"] ;
1229 -> 1230 ;
1231 [label="mse = 0.0\nsamples = 3\nvalue = 0.1"] ;
1229 -> 1231 ;
1232 [label="Humidity <= 0.7\nmse = 0.0\nsamples = 6\nvalue = 0.0"] ;
1228 -> 1232 ;
1233 [label="mse = 0.0\nsamples = 3\nvalue = 0.0"] ;
1232 -> 1233 ;
1234 [label="mse = 0.0\nsamples = 3\nvalue = 0.0"] ;
1232 -> 1234 ;
1235 [label="mse = 0.0\nsamples = 3\nvalue = 0.1"] ;
1225 -> 1235 ;
1236 [label="AirPressure <= 0.6\nmse = 0.0\nsamples = 23\nvalue = 0.0"] ;
1222 -> 1236 ;
1237 [label="WindSpeed100m <= 0.2\nmse = 0.0\nsamples = 7\nvalue = 0.1"] ;
1236 -> 1237 ;
1238 [label="mse = 0.0\nsamples = 4\nvalue = 0.1"] ;
1237 -> 1238 ;
1239 [label="mse = 0.0\nsamples = 3\nvalue = 0.0"] ;
1237 -> 1239 ;
1240 [label="Temperature <= 0.4\nmse = 0.0\nsamples = 16\nvalue = 0.0"] ;
1236 -> 1240 ;
1241 [label="mse = 0.0\nsamples = 3\nvalue = 0.0"] ;
1240 -> 1241 ;
1242 [label="Temperature <= 0.4\nmse = 0.0\nsamples = 13\nvalue = 0.0"] ;
1240 -> 1242 ;
1243 [label="mse = 0.0\nsamples = 3\nvalue = 0.0"] ;
1242 -> 1243 ;
1244 [label="WindSpeed100m <= 0.2\nmse = 0.0\nsamples = 10\nvalue = 0.0"] ;
1242 -> 1244 ;
1245 [label="Temperature <= 0.5\nmse = 0.0\nsamples = 7\nvalue = 0.0"] ;
1244 -> 1245 ;
1246 [label="mse = 0.0\nsamples = 4\nvalue = 0.0"] ;
1245 -> 1246 ;
1247 [label="mse = 0.0\nsamples = 3\nvalue = 0.0"] ;
1245 -> 1247 ;
1248 [label="mse = 0.0\nsamples = 3\nvalue = 0.0"] ;
1244 -> 1248 ;
1249 [label="mse = 0.0\nsamples = 5\nvalue = 0.1"] ;
1221 -> 1249 ;
1250 [label="WindSpeed10m <= 0.2\nmse = 0.0\nsamples = 45\nvalue = 0.1"] ;
1220 -> 1250 ;
1251 [label="WindSpeed100m <= 0.2\nmse = 0.0\nsamples = 20\nvalue = 0.1"] ;
1250 -> 1251 ;
1252 [label="Humidity <= 1.0\nmse = 0.0\nsamples = 16\nvalue = 0.1"] ;
1251 -> 1252 ;
1253 [label="WindSpeed10m <= 0.2\nmse = 0.0\nsamples = 13\nvalue = 0.1"] ;
1252 -> 1253 ;
1254 [label="ForecastingTime <= 27.5\nmse = 0.0\nsamples = 7\nvalue = 0.1"] ;
1253 -> 1254 ;
1255 [label="mse = 0.0\nsamples = 4\nvalue = 0.1"] ;
1254 -> 1255 ;
1256 [label="mse = 0.0\nsamples = 3\nvalue = 0.0"] ;
1254 -> 1256 ;
1257 [label="AirPressure <= 0.7\nmse = 0.0\nsamples = 6\nvalue = 0.1"] ;
1253 -> 1257 ;
1258 [label="mse = 0.0\nsamples = 3\nvalue = 0.2"] ;
1257 -> 1258 ;
1259 [label="mse = 0.0\nsamples = 3\nvalue = 0.1"] ;
1257 -> 1259 ;
1260 [label="mse = 0.0\nsamples = 3\nvalue = 0.2"] ;
